143 50
re5 -0.702708 0.21472263 0.02940241 -0.07698774 -0.72555184 1.0593283 -0.9807285 0.8317395 0.39345303 0.48548368 -1.1844922 -0.49172145 -0.72157717 0.7592827 -0.17890954 -0.4264532 -0.5586475 0.77369916 1.6576544 1.9481183 0.034222193 -0.46387523 -0.47369745 -0.6171187 0.14552985 0.16456272 -0.4562147 -1.0618917 1.322917 0.620965 -0.8355724 0.70535153 0.2574354 0.48475987 -0.29263344 -0.80943537 -0.27437547 -0.48541534 0.018593345 -0.10586272 -2.0567102 0.6591077 0.337119 -0.6627682 -1.1364572 -0.912655 1.8762476 -0.23441999 -0.71231526 -0.27651048
do5 -0.2066745 -0.872128 -2.0281255 -1.4327859 0.4396507 0.010633723 -1.4017602 0.41246638 0.723932 2.0837426 -1.2605704 -1.214268 -0.8406811 0.57316613 -1.278793 -0.6163889 -1.271394 1.2807434 0.55162525 -0.018491926 0.9254454 -0.08138753 -2.0913608 -0.56322145 0.59350294 0.20327589 0.1215728 -1.1889303 0.24827795 -0.6147123 -0.9192737 -1.8813583 0.501337 0.29395407 -1.3501776 0.5996086 -1.992967 -0.02716435 -1.4063953 0.1707367 -0.96063876 0.5105257 0.9373204 1.1492592 -2.0337253 0.84574014 1.7374642 -0.710444 0.13900875 0.86369956
mi5 -1.6274337 -0.5743938 0.27766958 1.6822839 -0.15352891 0.5136991 1.2372136 1.4879719 1.0041908 0.074874274 -0.98022616 -0.7278563 -0.32198435 0.62305796 1.8873436 1.5431161 -0.57645947 -0.5107867 2.6002433 0.8911346 -0.35937473 -0.44930965 0.49098828 -0.5494956 -0.5012637 1.0035421 -0.13629556 0.23078589 0.8550033 -0.996561 -0.29505613 0.77423877 0.23887096 2.0078065 0.86161244 1.2564389 -0.60344243 -2.3086448 1.0697769 2.1212459 0.88195133 0.6724351 -2.48243 0.28979465 -2.0669646 -0.26058644 1.1208382 -0.0590889 0.20938459 0.6550315
sol5 0.00393876 0.44249946 0.38420823 0.57355696 -0.038522653 -0.41019103 -0.20766251 0.16086252 -0.19351093 -0.39734766 1.6329513 2.3429382 -0.9486629 0.8130419 0.08728218 -1.6924561 0.20186117 -1.7216156 0.28122732 1.45135 -1.0529311 -2.1871002 1.0873125 2.4426775 0.15529522 0.21710484 -0.24010979 -0.8595888 1.6492441 -1.2462913 0.045788746 -0.6477468 -0.11409357 0.36808228 1.2511501 0.46619034 -0.19631615 -0.696088 0.21916452 -0.12814513 0.090539835 0.2894891 -0.18928362 -0.31574956 0.8568313 0.56765157 1.2159848 0.8398792 -0.49187353 -0.74811244
la4 0.7001544 -1.0616183 -0.34667996 -0.8699327 0.06803317 1.2715259 -0.0027896897 1.7039738 1.0195061 0.01092039 -2.4100964 -1.7686104 0.93493617 0.6304397 -0.061488878 0.6319267 -1.676467 1.1606812 1.9619013 -0.10225076 0.1807125 0.7468802 -1.4169285 -1.6906688 -0.36189902 -0.00906516 -1.3664867 -0.36291343 -1.6359341 0.29284456 -1.1372458 0.41377455 -0.25734624 -1.1618558 -1.3010775 0.59345347 1.1814594 0.47033036 0.08986755 0.16042437 -1.2507484 0.16002451 -1.1702724 1.1005496 -2.6733954 -0.07550625 -0.17046876 0.44613025 -0.31571805 0.011904786
fa5 -1.2607679 -0.686908 -0.2656163 0.37742323 -0.9686376 0.92458946 1.3647296 0.48484266 0.21360739 0.47675025 -0.41746876 0.12465659 -0.93159145 -0.16437005 0.8473332 -0.6084931 0.8550334 -1.5657065 0.3430768 0.42449716 -0.7552621 -1.4602156 -0.22590198 1.1513236 -0.80643904 0.24388841 0.3522325 2.6616132 -1.0126987 2.1024823 0.39425385 0.097078204 -1.6180688 0.1063774 -0.6875937 -1.1976701 -1.9407359 -1.5530282 1.140683 1.0583718 0.22460774 1.9085782 0.8001494 -1.7601416 -1.474603 0.55307144 1.8832831 -0.22410038 -1.0191997 -0.61423737
la5 2.097651 0.60420275 0.9610201 0.76519996 0.45801914 0.7507802 0.3490092 -0.6079739 0.6140541 -1.8987808 1.3586979 3.027772 0.014079708 0.7356694 0.23392472 -0.69462043 -0.29184073 -2.3963912 0.069696456 -0.28643176 -1.0739634 -0.82261807 0.7827568 1.3342636 -1.4941322 -0.55148196 0.17335784 -0.42088923 1.9550894 0.073764645 1.8803685 -0.7095037 0.24625789 0.43021432 1.3156141 0.0050928337 -0.6066613 -2.3375258 -0.66164327 0.6856676 0.38441238 0.023661867 -1.8478495 -0.75659925 0.9227319 0.510636 1.205548 -0.89471114 -0.8560214 -0.25969082
sol4 0.9660551 -0.008863014 -0.20972845 -0.89152604 0.61631477 0.19705655 -0.93607426 1.1725748 0.98919284 0.86033314 -0.87831825 -1.5190164 -1.5589628 0.03567237 -0.8817661 -0.30545804 -0.749481 3.1380398 0.5425491 0.08259356 0.3929937 1.1326346 -1.7900006 -2.0654378 0.012389265 -1.4235245 -0.7764579 -0.4747307 -2.5164046 -0.31844497 -0.36789367 0.8251761 0.68286926 -0.9901284 -0.97785336 -1.4170737 1.1821842 1.758497 0.91541266 -1.4638518 -1.6641775 -1.1581683 -0.26375577 1.0125791 -0.79409194 0.42341816 -1.594048 0.08490553 0.5472391 0.7114743
es 0.016540637 -0.1605226 0.041158672 -0.28308484 -0.03526313 0.5356961 -0.4148423 0.11769647 0.73610574 -0.3654169 -0.63460827 0.005189089 -0.1658812 0.71299773 0.08656983 -0.73203284 -0.050819065 -0.014977008 0.15894243 0.518679 0.08811261 -0.26682046 -0.4328212 0.21801987 0.09052246 -0.2620509 -0.4873961 -0.5052248 0.1773155 -0.17578222 -0.15028104 0.16117631 0.29071376 -0.2784736 -0.5949911 -0.6430936 0.02281358 -0.25494412 0.2641438 0.20576654 -0.25553355 0.23061444 -0.4379794 0.22952221 -0.2639086 0.026564123 0.46769446 -0.008538336 0.045956098 0.20417066
si4b1 -1.2367369 0.36571756 1.7700107 -1.59566 1.3601035 -1.3916292 -3.7550008 -0.90602905 -0.7729005 -1.816984 0.81855935 -2.5528927 -1.2822688 -0.095919125 -2.884388 2.018819 1.2450342 1.5472114 -0.57632816 0.65588033 1.1057467 2.940009 0.14112662 -0.83925617 1.4100055 2.9291334 -0.9737012 -0.53624475 1.6663758 -2.2738075 0.10472545 0.75314486 1.6022464 2.036059 -1.5979389 -1.6620389 -0.60402304 2.094166 -0.9133069 -1.6635673 0.86921805 -2.4885561 1.7119738 0.125908 0.16676907 -2.535515 -1.007316 -1.1130124 2.349457 0.0067576366
si4b2 -2.0218933 0.9124994 -2.0145917 -1.9903904 -3.4200704 0.52825564 1.0853226 0.92466116 -1.4881896 0.74589574 -1.4911524 0.33957055 -1.2056146 -4.6636577 -1.4777939 -1.4899114 -2.3444972 -1.9962114 2.4399633 0.0047510616 -1.0446662 1.0656279 -0.8170912 -1.8879306 -1.434123 0.41102546 2.1241937 0.43731853 0.30650795 -0.45921403 -1.7235955 -1.8247665 3.6007586 3.27798 -1.7432495 1.5899296 1.6793009 -0.8787889 -2.8114624 0.44633824 1.496739 -0.3025934 -2.4188118 1.3550624 -3.98284 -1.8071282 0.73019433 -0.22241588 -0.09499366 -0.6189008
fa5#4 0.85514945 2.0412874 1.9189756 1.260929 0.47444424 1.3881043 0.45852062 -2.1570559 2.0656626 -0.7195954 1.2890686 0.73976874 1.2388686 0.03405421 -0.5458979 -0.8014623 0.79187965 1.7944524 -1.1608024 -0.3550765 0.81706804 0.92145705 0.93583924 4.5578837 -0.38366747 1.523052 -2.723352 -2.6301463 2.4504755 -0.93050545 -0.32230967 0.038589884 1.920996 0.729771 0.73678815 -0.81832784 -1.6147254 0.48320314 0.6646737 -0.72497946 1.2278577 0.15194331 1.4124877 -1.9156791 1.8241211 -0.44547158 -0.43785402 -1.4219971 0.058607478 -2.487159
do5#4 0.24828313 0.11254136 2.5747058 2.880395 -1.5939177 1.9162306 1.1151623 0.7072595 0.17101592 -0.3253902 2.129622 -2.0541863 0.50046074 2.7328465 1.2115324 -0.00059807766 0.19919094 2.4945667 0.28219363 0.6197678 -1.273339 -0.2651398 0.70719236 -0.9491699 -0.83482003 1.5184951 -1.4274068 0.4123776 -0.46369308 -0.8976892 -1.2699322 3.5192087 -2.828561 1.2213488 -0.45866227 -1.1067375 -0.8240051 -0.686465 4.1573043 -0.7551064 -0.9688621 0.859175 -1.2230058 -0.311702 -1.382149 0.56268257 -0.8945515 0.4418828 1.4123571 -1.2519174
fa5#3 1.6189625 0.5010064 1.7941024 -1.6531608 -1.3222398 -0.5665 0.24957271 -0.29203692 -2.8703513 -1.779782 0.71970844 0.60396254 -0.6293456 0.41404182 0.93418086 1.48883 -0.3461447 -3.4158392 1.617122 -1.5997897 -1.3313234 -2.4817464 1.5041801 -0.21050617 0.16633606 0.16973206 1.1682832 -0.9314107 2.852171 0.6411233 0.060308106 -0.79780436 -0.120866984 2.171817 0.37008026 1.1994473 1.4629562 -1.4139893 -3.0646338 -0.6654577 1.6064442 -1.8225648 -0.301751 0.18187316 -3.120177 0.8390291 1.525794 -2.4430313 -3.4061506 -0.2942337
si4b5 -1.6472837 -0.54139364 -2.116879 2.503226 1.5783648 3.769004 -0.8469366 -1.486674 -2.1130672 0.8890592 -0.95489144 1.94626 -0.7395557 0.30759448 -2.8362405 -0.40990022 0.41147277 -0.81338054 -0.2057746 1.2666186 0.038991414 -0.4528675 -1.8368421 -2.429954 0.3292756 -1.3847927 -1.8012173 2.8928533 -3.0249317 1.9163901 1.9090067 1.2925373 0.55090547 -2.005084 -0.9573699 -1.3231077 -1.9263594 1.7724622 -1.0224894 1.1101093 -0.6562998 1.884984 -0.48041472 -0.2442206 0.735254 -0.27009872 -2.295674 1.0292329 1.0234575 -1.6042805
si4b4 -0.97502416 1.6260458 4.4241686 2.216045 -2.3955097 1.6381919 1.4571271 1.476853 -0.7142555 -1.8206192 2.120413 -2.0920742 0.6792344 -0.10918903 0.7595851 -0.5005676 -0.32409436 1.349608 0.5278756 -0.47164816 -2.032366 1.0811055 2.0661888 -1.1059902 -1.3936815 2.258743 0.51099896 1.1242578 -1.1775984 -0.3953974 -1.1805507 3.9831877 -2.2628849 0.6793089 -0.44777572 -0.22116552 1.3643221 0.7333939 2.7556868 -0.9286284 0.22912544 0.45870107 -3.3800979 0.21761718 -0.68617004 -1.4419925 -0.68081844 0.410277 1.934663 -2.9386942
si4 -2.9084895 1.7407979 -1.0275611 1.2743155 1.4490615 -0.04735689 -0.6231175 -1.107372 0.2729513 3.0805275 -0.6456914 -0.22658873 2.5970945 0.37945905 1.7460064 0.24978822 0.7573688 0.25401387 -2.475622 1.737715 1.5520289 2.1162567 0.18325827 -4.964772 0.31141907 -0.8612125 0.24441874 -2.4234052 -2.1483583 -0.8915097 1.6455864 -0.35221902 -2.4700007 2.616918 0.21811865 2.1513474 -0.42593718 -0.748906 1.2369598 1.752058 -0.0931045 -1.4303861 0.45032752 -1.4413849 0.7096062 1.24142 0.6258953 0.84752685 0.32302356 -0.042368285
mi5b4 -0.57946205 -0.21658939 2.3812864 -0.05894388 1.1344669 0.35698965 0.30512136 -2.3806908 0.9086173 -0.0123720765 -0.6185356 -2.056178 1.142946 -2.9975746 -0.8127886 -0.46562532 -2.4032567 0.49534625 0.06579568 1.2408981 -0.6647753 0.8132592 1.2094923 3.6180742 -0.19061467 1.7299224 0.2663637 -3.2319155 0.8050582 -3.0640776 -0.33472788 -0.3936466 2.294961 0.7696952 2.0000904 -1.6364958 -1.2801828 1.0061162 -0.38174972 -1.1313837 -2.2157335 -0.26689804 1.9004116 -0.085417 2.7043555 -0.52580416 0.9095161 -0.5558544 3.2589507 0.026325472
mi5b5 -0.34467664 -2.1326969 -3.238252 2.9201224 0.8345492 2.678416 -0.43423465 -0.62962824 0.019299654 0.33567813 -0.16572018 1.6672904 0.26410976 0.9660581 -1.1148708 0.020101197 0.1736848 -2.868479 -1.4321109 2.017985 0.9659527 1.92054 -1.976765 0.8808484 0.44935045 -1.5132468 -2.1932535 0.99390864 -2.1965027 0.07473433 2.4488206 1.0916779 2.207032 -2.5248535 -0.2500986 -1.5503625 -2.1483686 1.7684602 -0.6154027 -1.5133344 -0.99407506 3.0178087 -0.68248034 -0.95752126 1.0743965 0.6129749 -0.8539927 0.8425214 0.5825077 -0.6929203
do6 2.2905424 -0.6843802 0.8974331 -0.84964556 1.9511065 -0.8419905 0.092683315 -0.41731608 0.048834227 -0.69082135 2.3368673 3.3944323 0.62979084 -0.3374517 0.26516163 -2.7039416 0.55199534 -2.309858 -1.861937 -1.0909824 -1.2505064 -1.5720433 2.0504682 1.6189836 0.5624503 -2.5583065 1.0636016 -0.03866331 1.5140852 0.39015648 2.0043576 -3.173618 0.4534351 0.80726063 1.404113 1.0258087 0.9206383 -0.17815478 1.0494093 0.21684553 -0.64906675 -1.1369661 -1.2219939 -1.1777918 0.29597005 0.36022574 -1.6333456 0.098891534 -1.3573409 1.1696799
mi5b3 2.0812976 -2.47469 0.7952538 -0.8594194 -0.43912947 -1.9367876 -0.8663869 0.2700816 -1.9171146 -1.5849967 0.512798 0.47232306 -0.22463578 0.21351464 0.48579898 2.0012884 -0.8900589 -3.4746883 0.5827396 -0.4134512 0.13611807 -0.32480234 1.1804543 -0.6602708 -0.18156132 0.4013585 0.17141448 -0.8092076 1.1581054 -1.653505 0.61298156 -2.4578195 2.8954332 0.31577122 -0.5076789 -0.0012662055 0.43515173 0.21071605 -5.0478067 -3.245876 -2.5448205 -0.45638028 1.4734566 0.51740795 -1.1570425 0.41617438 1.2439624 -0.15486391 -0.4310777 1.4542208
mi5b1 0.063430086 -1.3168443 -2.1282227 0.5544607 1.1677175 -2.3272653 0.0963102 -1.4943361 0.0037304831 -1.6426408 1.9950814 -0.80773354 -0.3074939 0.026697764 -0.50913465 2.0542722 0.5698542 -0.5250003 -0.2650643 1.2984806 1.3179309 1.5618985 0.75666344 4.1626062 1.2082325 2.6271882 1.6325501 0.93660647 1.6967909 -1.7563597 2.7985785 0.6535457 2.7534864 -1.6626371 -1.6251292 -1.5448742 -0.9108041 -0.31684363 -0.5382193 -2.3113534 -1.6677517 -0.16942285 1.1795328 -2.05874 -0.0040612477 0.79156256 2.0164087 -0.6119095 0.22396195 -0.5425443
si5b5 1.71167 -0.9274613 0.120080024 1.897894 -1.2092717 -2.3789275 -0.9763794 -1.221705 -1.1758826 -1.9068954 0.12778029 2.4685931 0.76608485 -1.3809482 0.5446689 -0.6359319 -0.3963311 -3.929265 -0.16658014 -0.66345453 -1.4510413 -1.594005 -0.11358442 3.8205018 -2.1611748 -1.4237938 -0.5569422 1.9117377 -0.36667925 3.0033967 2.216977 -1.0821495 0.43877083 -1.1556634 1.9706068 -0.28475752 -2.341949 1.0619761 -2.2164671 0.35579205 0.33706006 1.7180306 2.3672893 -0.35955253 2.7895055 1.0107826 1.3597441 0.6201951 1.4689652 -1.5847801
fa4#4 1.75587 -1.4158033 -0.08323853 0.16408087 -0.5839095 -0.3942705 -1.4982088 0.2421783 -2.1867778 -0.667153 -1.5154401 -0.9286467 0.7607885 1.1212906 -1.3103071 0.7515395 -0.106610835 4.034608 -0.6499849 0.042713247 0.7370611 4.380106 -3.269035 -0.90053964 -0.26403454 -0.31026748 -3.1068559 -0.8567416 -0.99583846 -1.1381704 -0.56835407 1.5225933 -1.3695064 -1.9471933 -1.614722 -1.4091563 -0.0009812122 2.354243 0.60017157 -0.93874246 1.436069 -2.4878376 -0.2792511 1.8210429 1.3451077 -1.860948 -5.0461454 -0.41387805 -0.40181217 -0.5402965
re5b3 -1.0378029 0.25792313 -2.2630014 -3.672194 1.7652466 -0.5879324 0.24919543 2.5065868 0.66466886 -0.9676603 -2.8184316 0.33790797 -1.5615941 -1.756007 0.689042 -1.16825 0.19062796 2.122659 1.7469441 -0.2781733 -0.95867294 1.0744232 0.13598703 0.20102656 -0.2314203 1.1852595 -0.51006454 2.3384058 -1.0526007 1.1655494 0.43784615 -1.014741 0.9475694 -0.87393665 -2.374753 0.99856156 -0.5029167 -0.33360648 1.0900455 0.12748787 1.4383017 0.0057838075 -0.06970699 1.3894612 -2.14268 -1.7935596 1.1464019 0.14630736 -1.3174239 0.48511228
fa5#5 0.8956441 -1.1260415 0.98090583 -0.46819097 -0.7581871 -0.16661544 0.05945675 -0.61944824 1.6659582 3.2076988 -2.1311588 0.5907939 1.5737069 1.1699241 0.78168416 0.14819571 2.8831205 0.30335802 -2.3495042 -0.43806955 0.80875105 -0.25763538 3.5109878 -0.6561579 0.3508384 -0.53948617 0.5877659 -1.1053247 -1.9112742 0.5004542 1.0280712 1.0440443 -0.13146509 2.928723 1.1044927 -0.26523545 1.469682 -1.7973683 0.24465357 1.0192378 2.3303545 -1.9212581 0.16577357 -2.4058266 2.1669135 3.041992 1.5373753 -1.1761184 0.64453775 -0.26981696
si5 0.5313352 -0.053214 0.38773128 0.36250672 -2.6938891 -2.0363781 0.4906413 -0.05901442 0.69563544 0.2954098 0.14215222 2.5138428 1.3219811 0.08376945 4.4183044 0.17463912 1.6527808 0.2824162 -1.4721717 -3.0249848 0.09292158 0.6715059 3.9214737 -0.18690236 3.1564283 1.3311849 0.18179819 -1.225372 0.8766568 1.7720853 0.32983866 1.7283956 -0.325541 0.31164733 3.8612378 3.4044378 2.1096377 0.21594872 1.4803926 2.1216328 2.4199197 0.94700724 -2.2582943 -0.36056697 2.6400578 3.0403852 0.84736234 -0.01455816 -0.048176013 -0.2491065
si5b1 -0.044290666 -0.90800786 1.118908 -1.0713683 -1.4856716 -3.6315258 -0.428161 -1.7211374 -0.5032325 -1.571467 2.4285347 -0.6770325 2.4042866 0.5849539 1.6979963 -1.0875847 1.4659835 1.649692 -1.1005609 -0.99233735 -0.6747475 -0.31172475 0.61357087 3.3750932 0.3070215 1.1273426 -1.74306 1.2692327 2.7431371 0.99240184 0.81147265 -1.9341025 1.7931641 0.7924698 3.867654 1.4555252 2.9290295 2.1400802 -1.024654 -1.67766 2.4865127 0.028971508 2.0749984 -1.0451833 0.81115174 -0.4333805 -0.28984472 -0.27906474 0.07240751 0.5317599
mi4 -1.1613264 1.879908 -0.47335038 -1.7566134 3.9339917 -2.1697938 -0.34963438 1.1197954 1.2766701 -0.17529412 1.342889 -3.196045 -0.98071086 -1.2105604 -0.14043199 0.93280554 1.3325118 1.7588943 0.17907386 -1.6457064 2.2009711 0.8670098 -0.32046765 -3.8579605 -0.05583727 -2.3639655 -0.17333065 -0.66186386 -2.2385721 0.57977825 -0.5450006 -0.30599645 -1.8832554 -2.513865 -0.24510863 -0.23657687 1.0383518 2.5278604 -0.054157805 1.1285974 -0.19941403 -1.5434756 -1.3419533 0.3553854 0.07582628 3.1461065 -2.188763 0.22895893 -0.40459663 1.5077119
fa4 -0.5476608 -0.73247993 0.6247461 1.4029721 1.4842149 0.5209343 1.8920971 -0.9936605 -2.4008226 0.7416292 -1.9054763 -0.06019831 -2.4922073 0.8550441 -2.1887383 -0.0008535626 -0.20736098 -0.2326387 -0.30548772 -2.0709908 -0.20636882 -0.85783947 -0.22590393 -2.6620178 -1.305138 -0.7031915 1.6692836 1.6879668 -2.9436154 2.471816 0.32366753 -0.6752206 -1.2952712 -4.8422265 -2.77785 0.61215806 -0.38952735 1.3065025 -0.059269715 2.8407507 1.9125113 0.87245584 0.6961167 -0.82903993 3.327643 0.2649353 -1.5802051 2.73721 0.84053427 2.1339219
do5#3 -1.0085799 0.8474818 0.96342194 1.3823208 -1.2038456 -1.7502437 0.35155618 1.2801578 -1.60993 1.4330819 0.46178573 -2.1452692 -0.15138243 2.2244315 -0.5834549 -0.36617857 -1.01952 0.50444496 -1.3088503 -0.27127314 0.39686376 -1.5174117 -1.0285972 -1.00954 -0.23121753 -0.98564774 1.8057213 0.712594 -0.2060479 -0.29325277 -0.81113887 -1.2629282 -1.6180509 -0.25424817 -0.37758502 1.373025 3.3852694 -2.662577 -0.35419524 1.6486006 -0.88087994 0.20339514 -1.4390848 0.81358355 -0.44633088 2.9885442 0.8412566 -1.2296523 -1.6849439 -1.27821
sol5#4 -0.46090123 -0.8263685 1.7697947 1.1012043 -1.412148 -0.7140022 0.56826824 -0.9217385 0.57663065 -1.3117384 1.8988266 2.5895386 0.20361143 -1.0051392 3.5594182 -1.1713095 0.9394709 0.7115405 -1.4606403 0.33961412 -0.59667957 0.024884563 1.1549277 -0.11385041 0.6868381 0.86337715 0.4120776 0.40714765 0.84170055 1.7538382 -0.07588105 -1.1469636 -3.2343905 -0.49053156 0.4872298 1.8810779 -0.23622477 -1.7213593 1.0193738 4.7396584 0.27883634 0.09826628 -2.1242287 -0.99135673 0.63928646 -0.1006954 -1.4313401 0.75422645 -0.94036204 0.832053
la4b4 -1.1876775 -1.7083932 1.5966293 -2.1613305 2.9387243 0.32974833 -1.3202804 -0.57933897 1.6031754 0.59697986 -1.4654667 -2.5126946 -1.9842627 -2.045956 -2.923346 0.82585907 -0.8188907 0.54705215 -0.95593196 -1.0376396 1.5132066 1.0135878 -1.1231985 3.600128 1.5392132 1.7307297 -1.0653048 -2.200755 -1.8386544 -2.0561228 -0.9148867 0.06113809 0.8493163 -3.4074419 0.96417135 -0.8927962 -1.2956377 0.69878733 -1.379298 -1.4097092 -1.6416314 -2.2741423 1.0440247 -1.4735867 4.299719 -1.5013674 -1.7290983 -0.6225434 1.7822407 2.1468184
re4 0.08804961 -0.8600899 0.9717259 -0.9781224 -0.31498575 -1.0088882 -0.1716061 0.25017273 -1.2873431 -0.3669196 0.22056253 -1.7089487 -0.21972848 0.4403886 -1.3112789 1.071003 -0.15048033 1.7971592 0.54519254 -0.17851752 1.0194238 0.13407202 -1.1095318 -2.3660727 -2.4528813 -4.072935 -0.60409826 -0.95312953 -1.2729038 -1.3938093 -0.856895 1.4308038 -0.64967716 -3.5741394 -1.2671728 -1.6343675 0.19696397 1.0226351 -0.035404336 0.0845999 1.1744055 -1.6175936 0.5458901 1.1464993 1.3262752 0.5189492 -4.6316004 0.6832242 -0.075972915 0.12530313
la5b4 -2.7889414 -0.2924474 -0.8486407 -2.066204 2.1241462 0.1733229 3.2580082 -0.25112325 -0.055302363 0.10910881 0.9619901 -1.0277617 0.45251608 -2.1490898 -1.5498929 -3.1040843 1.2144306 -0.05512901 -0.43296847 -0.47869593 -0.04642695 -1.6288414 -0.0101210745 4.054657 -0.6394207 0.8438982 0.027775852 0.13863473 1.2355204 -1.6515619 1.2281226 -2.02701 0.5975329 -1.0113714 2.02393 -0.9948716 -2.611339 -1.2356913 2.0542724 -1.1203904 1.9974641 1.5615853 0.56592375 -0.7927826 3.639403 -1.5642058 1.8730859 -1.6043073 -0.30345163 1.809595
si5b2 0.094455905 1.0490317 -0.8299158 -1.7486969 -2.5637193 -2.0831525 1.311414 -1.1175991 -3.0163918 -2.2212288 -1.2687888 0.31165823 -0.37846342 -0.8811694 0.93857336 -0.3373921 -2.5381937 -3.0670629 3.7353456 -1.9573337 -0.4657581 -1.9452351 0.19711503 1.4211625 0.7348108 -0.49863634 2.9487467 -0.24906173 2.4340053 3.834366 0.42089495 -0.27418363 1.5178885 2.7080042 3.7030895 2.8214927 0.6412508 -0.16462155 -1.2548767 -0.111415066 2.555952 1.481482 0.19479014 0.73906386 -1.6709528 1.9652084 -0.719951 -0.16512674 0.1990734 -1.6267207
la4#4 0.4345726 -1.763125 -0.48227003 -2.6272798 0.15543321 -1.7481917 -2.1394808 -0.14528263 0.61780965 -1.8349434 0.0851843 -1.8295755 1.7402247 1.1818169 0.19687088 2.6738346 1.5175116 2.4487307 0.010013816 1.2571385 2.468997 1.1662052 0.7219782 -1.1569617 0.82049817 1.4500815 -0.4812368 -1.5267872 0.7146701 -0.77129793 0.9319331 1.9099575 -0.6669217 1.3183641 -1.4444538 -1.5385883 0.13793501 -0.62293476 0.26414037 -2.170292 -2.7497509 -2.7980514 1.0641402 -0.8214965 -1.8499281 -1.5369551 -0.5404424 -0.54569435 0.3549406 -0.33996427
re6 2.2109113 -0.9353435 0.007904934 -1.1410923 0.15039966 -0.83862495 -0.55051047 -0.3306332 -0.45441997 -2.254127 0.9388527 3.2757018 2.099526 0.056433868 0.24135992 -1.1261724 0.32232326 -1.7016249 -2.6791887 -1.3033705 -0.101406 -1.3937652 2.0897994 2.4166024 0.96875507 -1.5179185 0.28434482 -0.22160923 -0.44699535 1.9195902 3.1187334 -3.1045427 -1.3010327 -0.31782082 1.5190314 1.1138105 1.5530381 0.45053685 0.26656017 0.32803538 -0.8686864 0.7055443 -0.9858426 0.20640634 2.7975757 -0.085392445 -1.134654 -0.6243981 -0.08867768 0.73239
sol4#4 -1.3504112 3.252854 2.9903119 1.4857932 1.174724 -0.15361416 3.6564958 -1.3651185 0.07003523 1.2196566 0.032801244 -1.4831741 0.20040844 -0.63367385 2.9725363 -0.43188322 -0.39436013 2.5980823 -1.8797655 -0.2837279 -0.024841424 2.091963 0.99486774 -4.3645597 1.6639425 0.2914712 0.44875103 -0.18137711 -1.7530105 0.21198946 0.51868415 -2.0667284 -1.3615158 -1.5371748 -2.095326 1.1634599 -0.8334542 -0.72102225 1.857433 1.692222 -0.9805012 2.076058 2.2676764 0.2202789 -0.97920364 2.0468543 -1.455574 1.5128326 -1.0757726 1.1532043
mi5b2 -0.74398965 -1.4990643 -1.5159703 -0.6973342 0.51623315 -1.2355199 -0.4356422 -0.8555083 0.39945358 -0.5275351 0.2116473 0.24443251 -1.2116991 -0.2766054 -0.033850323 1.0399365 -1.0504857 -1.210325 -3.2902706 -0.10911478 -1.5697787 -0.2684807 1.4607673 1.6164061 -0.4166163 0.21696685 1.021445 -0.021187266 1.0752946 -0.9969659 -6.37341e-05 -1.2856199 1.4592993 -0.25000408 3.4901254 -1.1835196 -1.532088 -2.0386546 -2.0937088 -2.9209151 -1.7208779 -0.13624522 0.4956124 0.59299475 -0.61101794 -0.08936778 1.3052005 2.3975375 -0.3775408 0.24381424
la5b5 0.41763598 -0.28872535 -2.5303192 1.3362232 -0.95156777 1.535698 1.6902686 0.8657014 -1.4120599 -0.33195782 0.6980599 1.2713029 -0.24942592 -1.150992 -0.65687114 -0.22133644 2.2780511 -2.4787707 -3.3149977 -1.077165 -0.20681998 -1.239391 0.84770626 3.571307 2.1094694 -1.4424075 0.03778991 0.5356866 -1.6405243 0.54822654 2.403235 -1.562793 -0.4294402 -0.88233685 1.1581688 -1.2307682 -1.5802283 -0.8116239 1.3771086 -1.3434737 -1.2606839 1.5145931 -0.98787785 -2.0689528 0.93935376 -2.2950444 2.7740297 -0.52783155 -0.80135787 3.1304598
la4b5 0.45433068 -3.5097988 -2.8944983 -0.37284917 0.43150064 1.2641801 1.0977606 -0.80644363 -0.90124303 0.15925801 -0.25657332 0.58750266 -0.18097953 -1.280697 -2.165939 1.7601782 0.6416513 -2.014731 -1.9136811 -2.889807 0.4331139 -1.4734818 0.9116825 -0.5067088 1.8452289 -0.07775 0.4265558 0.17186761 -4.0948615 1.2358285 1.2133977 0.817049 1.8480831 -3.8424704 -0.8679341 -0.38002598 -1.6097262 0.77601904 0.28870758 -2.528727 -3.253413 0.5461124 0.1652286 -1.4701818 2.376407 -0.86562526 0.8103302 2.6536915 0.2064259 3.223382
fa5#1 1.1605625 1.1680391 2.6157255 2.0197072 -3.063378 0.6344571 -1.0361093 -1.4880314 0.32640448 0.08545827 2.4532893 -0.47739425 -0.4634653 -0.45169726 0.79490334 1.4730481 -0.1707706 0.96671593 1.284074 -1.4295717 -1.116798 -0.18624592 1.5058738 0.52763987 1.8916382 1.4556123 -0.6577981 -0.21065933 1.3934394 0.44470903 0.71307707 0.4500181 -1.5928226 -0.5736012 -0.088082 0.31297642 1.0274996 -0.30214518 1.6181117 1.0292258 0.51867634 -0.47182342 -0.7854726 -0.8010215 -2.5249383 0.1797153 0.8861509 -1.4116848 -2.0316854 0.09410471
mi5#4 2.3537202 1.174542 0.13350245 2.0292068 0.81009555 -1.7571032 1.5569814 -0.23107383 0.3976096 -3.6061003 3.0685966 0.23492184 1.9685869 2.0476866 1.8583384 1.2462612 2.6567783 2.5442188 0.33606008 0.04055881 2.1530507 1.0451821 1.5540684 0.6411257 -0.88787323 0.71891373 -1.8964638 -1.5463928 2.5361927 -0.76946145 -1.3549002 1.5257574 1.722384 0.93360496 0.8103248 1.2380806 -0.448538 0.27209324 -1.3281277 -1.3014457 0.8475104 -1.0554899 -1.6591709 -1.6421748 -1.4056951 0.31386104 -0.49862581 0.9443123 -0.25104624 -0.70205647
re5#4 -0.8901752 2.4651148 -0.66675013 -0.47768003 0.35267526 -2.038441 1.1496911 -1.0819839 -0.48012263 0.07099636 0.39267102 -0.26856464 1.344993 -2.3435674 0.6181582 -0.4122194 2.1407478 1.6894835 -0.99557704 2.5025039 1.0030072 0.534768 0.77373385 -1.8244183 1.9679023 -0.95316404 0.5752994 0.1106965 -0.5219744 -0.20465825 0.32798013 -1.9214414 -2.6094975 -0.88258666 0.32091796 0.8645355 0.7732783 -2.1987405 0.8436141 3.6805413 -0.54193836 -0.6798164 1.3461983 -2.7640915 -0.10767812 1.3679035 2.9063601 1.5865407 -0.74896884 1.8175398
fa4#3 -1.1578236 0.41540432 -1.7488682 -0.8892554 -3.466709 0.17158444 -0.11128297 0.60818565 -1.9034266 0.17708562 -1.4207611 -2.7508168 -0.019032972 -0.3156046 0.72147363 0.48340416 -3.448314 0.6073201 0.01203282 -0.53680784 -2.2959976 0.48792946 -0.23056164 -1.5033922 -2.8276079 -1.4104663 3.7128215 -2.1620247 0.07703132 0.8837531 -0.7815024 -0.22611067 -1.0113146 0.047381595 -3.5059175 0.83431673 3.6275012 0.6270013 2.6694112 -0.44197568 1.038217 -2.7065227 -1.9750311 2.3786132 -0.8390195 -1.4001375 -0.9957885 -0.19695596 -0.9927034 0.90218
si5b4 -0.14766203 0.071481936 1.723479 -0.66361696 -3.0561893 0.9112045 0.040952038 -0.19099821 0.18154137 -2.4772139 1.049337 0.4876899 0.015269573 0.20045769 1.6913817 1.5536687 -0.8627768 1.4786271 0.810727 -1.1130517 -0.6150247 -0.67327785 4.519109 3.041839 -1.7517232 1.2932806 0.8926335 1.2153537 2.4190185 1.2615535 -1.0571822 -1.0314273 -0.6482621 -0.81121564 3.1840217 -0.20590949 -0.035493296 -0.41380712 -1.0984259 -0.7223199 -0.05358751 2.2933536 0.27982798 -1.0698651 2.446922 1.3045248 -1.2104648 -1.1196904 2.0144904 -1.8322141
re5b4 -0.4588025 -0.07389058 2.107575 -1.1949364 1.3753178 2.065379 0.68619657 1.1041946 0.59159976 -1.3891227 -2.0540502 -1.8140517 -1.4090701 1.2974316 0.08765904 -0.9889999 1.0902195 1.7799124 1.2884322 1.9175462 -0.39015555 -0.42529994 -1.8602788 -0.5874515 2.9655828 1.4083532 -0.18301198 2.9870965 -1.603551 0.34370592 -0.30301917 -1.3392363 0.9274974 -2.0292492 0.6974755 -1.1992009 -1.5668485 1.7314543 -0.10820954 0.16871947 0.17815237 -1.5090995 -0.11127394 -1.838052 -0.86784565 -0.352481 1.0384381 0.25925937 0.90013844 2.188234
fa4#5 0.22316167 -0.68599766 -0.9499188 0.40453827 0.245478 -1.5171585 1.1542429 0.41062805 -2.597369 2.4953427 -4.3086476 -0.7452693 1.6843226 1.9643263 0.50570464 0.81191343 0.73876774 2.9389117 -4.007549 -1.2368244 -0.4248781 1.5206627 -0.2045424 -3.380687 0.6369372 -1.2753359 2.124964 -1.505059 -2.8881676 -0.56637496 0.78886473 1.3721322 -0.6687337 1.3682002 0.027260238 0.9038696 2.8652563 0.6565872 2.6364264 0.08223873 1.6958091 -3.9615393 0.49385625 0.1581221 2.9080958 1.0262486 -0.010038528 1.5032893 1.3665236 0.5092371
la5#4 1.160101 -0.8347896 -1.793308 -1.3973687 -0.97523355 -1.0978578 1.5159079 -0.30261207 -1.725201 -1.9096031 2.1460648 -0.20429878 3.8131664 1.3184271 1.0342306 1.5541773 2.1578834 2.210295 -2.7823234 -0.7727272 0.21018708 -0.28052047 3.0464175 0.60812664 2.1027377 0.08403835 -0.0910552 -0.799375 2.4484015 -1.3131189 1.5950722 -2.2041187 1.5859756 0.15984997 1.2612783 0.20415582 4.30514 -1.4166117 -0.86894983 -1.4324573 -0.15132107 -1.2976135 -1.7555579 -0.5472413 0.6111403 -0.4980457 1.7139788 -1.6139961 -2.123189 2.8631802
fa5#2 -1.3676673 1.5950928 -0.3587302 -0.1742561 -1.1090951 2.1159704 1.7059095 -0.16725907 0.82919055 0.5054499 0.5046286 -0.08156413 -1.1554284 -0.6288504 -0.23071389 1.3156823 -1.3467765 -1.6732786 1.1940523 0.114533894 -1.8578001 -1.9431398 1.0981468 0.91945136 -1.4592594 -0.26932585 0.7357452 -1.1161741 1.6689255 0.69345844 -0.22994505 0.73503065 -1.3210473 0.008889524 2.0144608 2.4013789 1.4254929 -1.5982825 0.44505128 1.5906744 2.455381 0.64475745 -2.134179 -0.51292735 -4.342319 0.50189084 1.4913656 -0.33550447 -2.2494366 -1.4151462
mi5#3 0.25510758 1.162273 -1.1491812 0.99378943 0.21090291 -0.281873 -0.5877622 -0.30998695 -0.3088557 -1.0645657 3.035068 0.059171785 0.322343 1.826711 3.1097262 2.0249991 -0.32090977 0.66852385 1.7216481 -0.7516486 -0.070569396 0.12373384 -0.718865 1.393423 -0.9586495 -0.11032666 -2.648671 -2.2640543 4.090409 -1.5436814 1.6123842 2.4998224 1.0440596 0.3380883 1.2426821 1.03207 1.5523496 -0.0068430034 -0.13745154 -0.85174316 0.9962049 -0.937896 -1.512676 0.37742764 -0.9590138 1.2467953 -1.80558 -2.4645069 -3.9015408 -2.676967
do6#4 0.41771445 -0.07812181 0.5857749 0.19103162 -1.1351706 0.8061505 -0.56537586 0.41170636 -0.16347906 -1.3706019 2.5802922 2.2306948 -0.090691656 0.06911998 1.3460453 0.15762602 0.46415108 1.5783124 -2.7234998 -1.2754538 -1.2640425 -0.39362505 3.9126282 1.2752569 -0.4705926 -0.7201335 -0.3643162 1.9040753 1.0668048 0.20132868 -0.274686 -2.8636982 -0.3980904 -0.99563533 0.8549963 -0.20714179 0.93819845 -0.12257877 -0.2228641 0.24813409 -1.4887532 0.76473314 -1.2631495 -0.2883477 1.4122474 1.0119927 -2.6997015 -0.7461881 -0.045372777 -0.37967157
mi4b5 0.7194482 -0.5033016 -1.6186833 -0.16997603 -0.43395057 0.19836386 -0.25187373 -0.06734641 -2.2765968 -1.2445685 2.1348355 1.1837527 0.36063236 -1.3680094 -1.4974428 0.066859774 1.7563071 -0.1935867 0.28799605 -1.4703131 1.6538513 0.10304799 0.51123405 -2.5194488 0.37461105 -3.2234774 -1.50088 1.0729848 -2.7298791 1.6866055 0.9590189 0.89088017 0.42005995 -3.1440103 -1.3540856 -1.2321345 0.6884615 3.4738212 -0.9960782 -0.34526828 0.027155766 0.952251 -1.8752382 0.73520046 2.52575 1.26313 -3.9603896 -0.4954923 0.25906152 0.8182814
do4#4 -0.049550183 -0.32102007 0.19289868 0.43856838 -0.9055743 -0.6184464 0.60323036 -0.08941683 -1.4801198 -1.3537287 1.4804376 -0.6752895 -0.4257728 -0.62344277 -0.46349144 1.0635222 1.4144821 0.3932865 0.10425338 0.41751197 0.03248894 -0.22052333 1.583514 -0.19730991 -1.4979485 -2.2389889 -0.2754725 0.59642 0.35768357 0.8621625 -0.32174113 -0.39311522 -1.2816176 -1.8432797 -0.33898002 -3.0988808 0.3178076 1.3335215 0.53593254 1.3577398 1.2136544 0.6393054 -0.42248547 0.15951237 1.705594 1.3980945 -1.4551919 -0.98150986 -0.3526698 1.1320671
sol5#3 -0.830429 0.9050201 -0.20960496 -0.029268527 -1.0647484 -1.4442357 -0.56629133 0.5967947 0.8965886 1.0556896 -0.06173945 1.0027992 -0.89531404 -0.1829677 1.6434057 0.61790484 0.31174535 -0.13521568 -1.1913822 0.011647646 -0.7232293 -0.84216446 2.9556441 0.9417127 -0.5571861 -1.0573105 0.18995976 -0.32439804 1.4973936 0.89528733 -0.5890355 -1.0402452 -1.5890698 -0.12148592 1.5653528 1.9806232 3.6227167 -1.831912 0.5502214 4.175911 1.3746399 0.72690874 -0.8719297 -1.0141402 0.61986405 3.2616534 0.7536067 -0.044962544 -1.1584547 -1.1517947
si4b3 -2.334987 1.227642 1.2339332 0.18678215 1.0355808 1.69816 -0.2687059 0.15106277 0.03985381 0.43747082 -1.3068944 -0.4766503 -1.3133078 0.24223092 0.516593 -1.0228859 -3.1291718 -0.76740223 0.9395132 -1.8123943 -2.1568213 -1.3717645 -0.80189925 -0.98455995 -0.72836626 0.8948869 0.8702774 2.0927744 -1.0554118 1.9831612 1.5020906 -1.0692176 -0.10139506 -0.38523173 0.43610683 1.7409624 0.25451282 -0.2730165 -0.065526746 0.5544624 -1.7617034 1.4205189 -1.1920085 1.6395321 -0.4701587 -0.4640165 -1.3164485 0.09739362 0.59826076 -0.97974414
mi4b4 0.7460315 -0.09527203 0.70654464 -1.7835668 -0.29874805 -0.11270593 -0.1465469 1.0909528 -1.0099236 -0.82500476 2.5064542 -0.31108183 0.30772886 -1.6446985 -1.7213999 -0.4972724 0.9589586 2.6586077 -0.67963266 -1.4901508 0.97608554 0.22956401 1.0963145 0.51425266 -0.507854 -1.7241583 -1.4870793 0.018897193 -1.9151261 -0.68473214 -0.6338786 0.69308525 -0.46724772 -2.168793 -0.06531721 -2.725023 0.19313098 1.5984203 -0.07476166 -2.3740716 -1.3208071 -0.33558005 -1.0574298 1.4505981 3.4261801 1.2230701 -3.689757 -2.7906811 0.0013747901 -0.6498534
fa4#1 -1.1021891 2.603651 1.9256492 -0.21457806 -0.38048238 -1.3057941 2.0733945 -1.0848376 -2.8744493 -1.8190655 -0.3185021 -1.659242 0.5399452 -0.17060335 1.5138927 -0.03889154 -0.41202155 2.3609335 -1.8767859 -1.0428107 -1.7018579 2.413485 0.45189336 -2.2849245 0.93947446 0.7155926 1.4036789 -0.80728394 1.7232118 0.10994011 0.42013985 -1.2619904 -1.4460716 -2.732734 -0.47931632 0.8654751 1.4293993 0.83298886 1.9059236 0.37383348 1.9696004 -0.8823215 0.40464693 0.87812525 0.20617954 -1.6188161 -0.76061106 1.7628491 -1.8892381 1.065072
mi6 0.049238056 0.36167535 -0.06941517 -0.41101184 -0.8774735 -1.4124802 -0.15774588 0.3239605 -1.5254 -1.5725688 0.39662 0.81091785 0.7255131 -0.96940076 0.76240957 -0.64579654 0.23102066 0.6997343 -1.5271564 -2.3914006 -0.6090219 0.2733612 2.1808922 0.72687656 1.7411649 -0.64824927 0.40014642 1.5100583 0.7214803 2.2615793 1.0917932 -1.9289162 0.042074524 0.04865972 1.7909884 0.79546905 1.802561 0.39964443 1.3118137 0.5820495 -0.45328903 1.1730087 -1.2274592 0.42899916 1.9624038 -0.029173903 -1.5513886 -0.7088723 0.313085 0.83161545
sol4#3 -1.198586 1.8853396 0.15939793 1.1694926 0.50617933 -2.5602582 1.0931664 0.5104438 -1.8747182 1.9344103 -1.4552282 -1.4597939 -0.41898403 0.54697394 0.58993536 -0.36497143 0.0275901 1.7399275 -1.9615557 -0.11776869 0.60439914 0.94744474 -0.939774 -3.0638864 -0.29512274 -2.4364343 1.4073662 -0.15434854 -1.3676772 -0.2005092 0.46229243 -0.51070845 -0.11566057 -0.14050998 -0.5368132 0.89797604 3.2591865 -0.64618504 0.100178294 1.727862 0.3103938 -0.7654721 0.33117968 0.49823064 1.1512275 2.208022 -0.80921423 0.6503283 -0.56941396 -0.36695284
la4#3 0.55007625 -0.3481124 -0.86860126 -1.0608889 1.3744524 -1.7027748 -2.2901278 0.23359494 1.2677367 -0.47825658 -0.08120884 -2.5024037 -1.0735078 1.6144867 -0.4002959 2.281356 -1.2250795 1.4988332 -0.114663124 0.7291209 0.28889096 1.8212584 0.33450064 0.89271015 1.61069 0.9767514 1.2237021 -0.49349725 1.0090293 -0.5446627 1.3338214 0.18138213 0.32044435 -0.77703327 -1.3753431 0.0391723 2.5259674 -0.4796917 1.1447822 -1.2855747 -1.8184904 -1.3382684 -0.011568568 -0.0074371216 -1.9314129 0.6865086 0.66249037 -0.18400598 -1.0355223 0.46834314
mi4#4 0.16401929 0.5402731 -1.1888345 -2.2042508 0.31564504 -1.931244 -1.6726316 1.1719494 -0.13842814 -1.2567561 2.0358226 1.3543274 -0.03127203 -0.95469743 0.8427807 -0.8364897 2.317294 2.735891 -0.2729341 -0.5129225 1.3246247 1.5112216 -0.39657438 -0.91790897 1.137867 -0.20653176 -2.2160368 0.59813035 -0.13221739 -0.5927891 0.39201316 1.0370389 -0.27281886 0.4769444 0.15624948 -0.14590095 -0.39329177 0.7443954 0.06699801 -1.9966766 -0.3586364 -2.040009 -1.2385539 0.8297866 -0.6739323 -0.5356364 -3.1862602 -0.78045267 -1.0301728 -1.3362627
la5b1 1.0925461 0.11778251 -0.4111491 0.17743617 0.89469624 -2.3445568 -0.09090724 1.8424534 -0.49127266 -1.6004288 0.45097464 0.8253863 0.0950393 -2.3721392 -0.01260405 -0.50377667 2.0558677 -1.4840806 -1.4275835 -0.8644556 -0.6433435 -0.212345 1.8471504 1.3087255 0.73835045 -0.09848711 -0.415091 2.1654823 -1.140832 1.2806242 1.8162184 -0.8528232 -0.52081525 -2.0557241 -0.944883 -0.60909164 -0.029735202 -0.91439193 1.1158268 0.94244194 -1.1100178 0.4421694 -0.7002893 -0.14398868 1.9330245 -0.9459193 3.2966907 -0.24349307 -0.70031005 1.5757936
sol5b4 -0.48720655 -0.9022884 -1.4879135 0.12085513 -0.13769981 -0.6994019 -1.0663354 0.4997434 -0.3314146 -1.7293525 1.8139989 0.17254381 -1.4447038 0.06061367 -0.57081264 0.4370952 1.1573149 -0.25513953 -0.2967802 1.6149693 -0.43214685 -0.97365475 1.200272 1.6682552 0.2963785 0.27825215 0.81134665 3.924897 -0.53319305 0.9054728 0.8878274 -0.34455344 -0.8316428 -1.9124914 0.031083938 -1.6435726 -1.6464503 -0.36949942 0.43143174 -0.09546089 -1.2270707 0.52247894 -0.30875573 -0.97003776 -0.041323107 0.7580649 0.6910416 0.41972724 0.9084803 -0.19900405
re5b5 0.25399143 -0.808381 -0.09698969 0.2924985 0.44036126 0.23170851 0.0001315393 -0.71120584 -1.5614277 0.6378656 -1.9383382 1.4378155 -0.80016154 -0.61893475 -0.62414336 -0.74107814 0.86481345 0.6728145 0.70022833 0.5190967 0.17487732 -0.48627064 -1.2553122 -0.61506194 2.2643893 -0.63016254 -1.4749628 2.2644792 -1.4575682 1.6982621 0.68418115 -0.4223508 0.77940065 -0.97126347 0.7937143 0.036837097 0.6963302 0.11558576 -0.7967227 1.5329776 -0.6037516 -0.45864394 0.6425792 -1.1481503 0.17436053 -0.012877286 -1.1171665 0.67562485 -0.006183333 0.43734685
mi6b5 0.68338877 -0.14846733 -0.6944047 0.6451744 -0.6168788 -1.0274594 -0.18351556 0.5780499 -1.4229727 -0.5278275 0.03860805 0.9443516 0.54858434 -0.95995593 0.22008535 -0.3479225 0.54954666 -0.9990113 -1.2417691 -1.6558241 -0.3158888 0.031099213 0.9434785 1.0940895 0.9110803 -1.2651591 -0.44287133 1.032428 -0.95341766 1.2577426 1.4418935 -0.7917915 0.5080468 -0.16855717 1.0974569 0.16001241 0.18396471 1.2308831 0.7077853 -0.5105904 -0.34908935 1.1250443 -0.070706666 0.3626835 1.8888288 0.046424117 -0.4263997 -0.36507896 0.5886908 0.49260816
mi4#3 0.111996055 0.48907652 -0.93134034 -1.8836964 0.14579482 -0.78738445 -1.0961438 0.6912133 -0.25201458 -0.95558035 1.5210822 0.14596446 -0.025761526 -0.7131043 0.5881522 -0.4040753 0.6374034 1.4155663 0.021556845 -0.58910626 0.43182808 0.85007614 -0.7362627 -0.073075145 0.22864953 -0.9058802 -1.3190776 -0.2040588 0.39918247 -0.5372422 0.6062019 0.32132256 0.2478905 -0.24266241 0.20314388 -0.32660824 0.5356843 1.0119921 -0.037309296 -1.6695576 -0.05090449 -1.3968357 -0.9774848 0.9206113 -0.25758764 -0.079957195 -2.4311962 -1.4082134 -1.2657733 -0.7058835
do5#5 -1.4319055 -0.5480842 -1.1119388 0.16824755 -0.18681248 -0.33037788 0.68198025 -0.39191982 0.10519413 1.4860526 -1.0414071 -0.9663297 0.32509285 0.5720694 0.20497279 1.0060571 0.3503574 -0.26124862 -0.54665065 0.94583243 1.0006076 -0.4948878 0.7364511 -0.99779737 -0.41795963 -0.78495395 1.0567526 -1.5406216 -0.87453574 0.0037970338 -0.1822604 0.08201398 -0.98781765 0.9643747 0.19666423 0.69221914 -0.016693553 -1.5336226 0.4628879 1.5388968 0.43369013 -0.22521238 0.8194638 -1.5070903 0.12021306 1.3242706 0.7731619 0.9128273 0.74954456 0.77430683
re6b4 0.14246994 0.32013115 0.22603144 -1.4237635 -0.15519701 -1.0142299 0.27367046 0.07688351 -1.2359113 -1.4381287 0.1583589 -0.24158044 1.3686013 -0.23905265 0.103940934 -1.0254874 0.3830211 0.8937887 -1.0384874 -1.2166083 -0.29680276 -0.2695579 0.23177812 1.0650926 1.6897852 -0.0945544 0.12462479 0.45460287 0.18515986 1.172506 1.499718 -1.8468384 -0.056764334 -0.31655914 1.7509578 1.0674313 2.1651652 0.72587895 0.6715876 -0.41685256 0.3053854 -0.15820442 -0.6408989 0.12655728 1.196688 -1.1666291 -0.20802428 -0.666118 -0.32265693 1.577912
do4#3 -0.42999968 0.42991668 -0.44926333 -0.25063896 -0.87046695 -1.0782025 0.46659365 0.37907964 -1.3126954 -0.63987494 0.75523525 -0.99779665 -0.15834635 -0.467726 0.18349703 0.6095064 -0.13219853 0.017662026 -0.36038023 -0.5736706 -0.13039385 -0.06218328 0.83695453 -0.39309582 -1.316447 -1.9521942 0.8973355 -0.62872076 0.39263228 0.3848534 -0.085256815 -0.38047987 -0.35320938 -1.1797702 -0.51920843 -0.6184061 1.839161 0.53384364 0.30761364 0.32717434 0.76885825 -0.32741383 -0.91624165 0.7034706 0.9806573 1.0279213 -0.92559415 -0.7368168 -0.98883605 0.4458149
re4#4 -0.49365366 0.9787645 0.8062375 -0.21957277 0.068098046 -1.2276056 1.300674 -0.3108161 -1.3766524 -0.74421126 -0.35822582 -0.8861377 0.07114131 -0.09625306 0.5499621 0.29185754 0.18192057 0.9767548 -1.1841607 -0.87381256 -0.4488132 0.6964824 0.37687984 -1.2155051 -0.028686795 -0.25170827 0.9415806 -0.17343885 0.17838113 0.015345953 0.12183817 -0.80759645 -0.5851903 -1.8515654 -0.06882854 0.62626565 0.7219218 0.14114903 0.43131694 0.67814213 1.2185919 -0.56520975 0.4646485 -0.033104174 0.7506403 -0.21157394 -0.14682949 1.279824 -0.56197065 0.8907791
re5b1 0.30808017 0.23970358 0.8039278 -1.2670698 1.1649474 -0.8730111 -0.40534565 1.1272616 -0.33566037 -0.9229536 -1.1657141 -0.36248416 -1.4303111 -0.5466978 -0.6282364 -1.1260428 1.3837543 0.8126587 0.3216982 1.1337496 -0.6926053 0.099674344 -0.15447345 0.28411654 1.8202161 0.1465239 -0.3892951 1.716258 -0.15446569 0.83968204 0.4505918 -0.9635764 0.5381134 -1.3004398 -0.34492424 -1.0682298 0.7570851 0.10805729 0.47860077 0.2525302 -0.017049931 -1.0418419 -0.21182947 -0.49600375 -0.29801294 -1.2401884 1.3071696 0.12413786 -0.8847823 1.7170229
la5#3 0.5778093 0.011091246 -0.09659281 -0.5960771 0.024515035 -1.1879628 0.442203 0.2966813 -0.36664504 -0.34786773 0.7467311 -0.06616442 1.008312 0.014904432 0.8903123 0.30716905 1.079379 0.78397006 -0.9578098 -0.49014866 -0.30047214 -0.24064279 1.3779157 1.2357521 0.94173676 -0.25602946 -0.73765415 -0.5713633 1.4401916 -0.65215456 0.529893 -1.1891878 0.48135716 -0.5305997 1.011993 0.506379 2.2285414 -0.2648377 0.06272709 0.19925065 0.5954593 -0.6200519 -0.33664137 -0.37833342 0.6291948 0.3548518 0.96265125 -0.853368 -1.6694974 1.1417964
la5b2 0.76304036 -0.3784338 -0.23548841 -0.21617506 0.69928265 -0.6690516 0.18046993 0.7083058 -0.4506771 -0.9530213 -0.27472174 0.07925335 0.18052335 -1.4596819 -0.48516154 0.19073868 -0.41664174 -1.6074725 -1.6762422 -0.6569308 -1.1847011 -0.73364234 0.78098965 0.69161963 -1.5596305 -1.3388981 0.13709822 0.59482706 -1.3217063 0.41563764 0.6553272 -1.310658 -0.34075552 -0.84391004 0.44392022 -0.7508144 -1.1068034 -1.1464182 -0.73797745 -0.53582186 -1.4308982 0.021241058 0.1826909 0.752509 0.4227031 -0.6782887 1.1667067 0.5846284 -0.18690328 0.45243427
do4 0.24482729 0.20146103 0.015584248 -0.13589941 -0.22980924 -0.797811 0.7378468 -0.0714888 -0.94200176 -0.563781 1.0490828 -0.048105355 -0.13431597 -0.8661198 -0.04320005 0.4746704 0.7245813 0.009729149 -0.36410883 -0.8524031 0.34748557 0.015870415 1.051328 -0.9388081 -0.19044176 -1.6713084 0.020661073 0.028943526 -0.6829869 0.4554127 0.11721738 -0.34875593 -0.1451356 -1.8893199 -0.58815426 -0.5755492 0.48766503 1.083228 0.04742599 0.2464829 0.4405796 0.25641832 -0.06492867 0.21668684 1.3222346 0.9943508 -1.4325362 0.12333467 -0.40802115 1.051443
si5b3 0.5232554 0.39566562 0.076112986 -0.5516693 -0.24713327 -0.41404518 0.17168923 -0.43268064 -0.4448762 -0.80571616 -0.11520418 0.7021674 -0.15104444 -0.12720442 0.44804314 0.113019526 -0.61227065 -0.6684816 0.1643424 -0.5710495 -0.5155962 -0.9847778 0.8387648 1.1787804 -0.24444914 -0.7581806 0.77428347 0.11195701 0.5906008 1.6209979 0.65182334 -0.45241043 -0.18642254 -0.37829137 1.4369378 0.78997606 0.45662028 0.028030647 -0.17509027 0.06310234 0.31023288 0.16840503 0.26893085 -0.20813292 0.10093437 0.90986234 -0.60881454 -0.10398073 -0.37623727 -0.7853427
la5b3 0.88789326 -0.15261991 -0.36678317 0.8502253 -0.04714473 -1.1661805 -0.20069137 1.1809347 -1.0035359 -0.5377025 0.32690796 -0.0026318093 0.15826023 -1.1778579 0.056985013 0.35754052 0.3141263 -1.3700548 -1.1973311 -0.79394764 -0.80579716 -0.6165181 0.6413791 1.2715209 -0.7438902 -1.1897746 -0.3850474 0.76113045 -1.154103 0.024114463 0.9470793 -1.0379083 -0.5057124 -0.83395797 -0.16164532 -0.42928967 -0.56555265 -0.12136877 0.04183246 -0.04306258 -0.9456868 0.098921165 0.16264844 0.46802685 0.68082297 -0.24316007 1.5616384 -0.3726486 -0.21131639 0.69427013
la4b2 -0.5601342 -0.633622 -1.2860385 -0.35155404 1.139949 0.6606239 0.8507016 -0.28252283 -0.3660585 0.11537088 -1.4279484 0.263435 -0.2314358 -0.43500885 0.17099282 0.37253013 0.14926538 0.72923076 -1.6792014 -1.0217202 -0.6972063 0.044637408 0.18818764 -0.96872675 0.8496708 -0.02838083 -0.25196332 1.0086839 -1.7325389 0.80850446 0.09403758 -0.15368523 0.8507215 -0.7665492 1.2848439 0.13673443 -0.70322776 -0.34556678 -0.069763884 -0.57062477 -0.7265244 -0.48823583 -0.42504892 0.34896788 -0.077529475 -0.6980929 -0.68457437 1.7904056 -0.17774841 0.9226845
re5b2 -0.80032754 0.49238843 0.021199081 -1.6423796 1.0415822 0.28318903 0.004810182 0.74496204 0.736659 -0.21173558 -1.1967404 0.0012005228 -1.1011425 -0.78288084 -0.268393 -1.2345259 -0.68481225 0.5476468 0.5652669 -0.295849 -0.7016132 0.090199955 -0.38659015 0.53078455 0.2977756 0.23220849 -0.4764912 0.4043449 -0.5839422 0.7683508 0.19404155 -0.34517133 -0.1758278 -0.60196185 0.28617913 0.66865146 0.4686386 -0.23638296 1.2122921 0.047705963 0.10152997 -0.10870812 -0.6745286 0.39592326 -0.5703624 -1.1019155 -0.7298901 0.3326271 -0.45546013 0.25629747
do6#3 0.04405111 0.17381261 0.009331119 -0.37744275 -0.57467717 -0.46200043 -0.22485141 0.5772884 0.021241069 -0.08102034 0.20211692 0.8816662 -0.07408852 -0.43159854 0.83850837 0.2321525 0.33070123 0.16182205 -1.1934253 -1.3544477 -0.475825 -0.15039971 2.1147642 0.45098135 0.20386282 -0.41931042 0.24393536 0.20098497 0.51138335 0.80903035 0.052937467 -0.7295711 -0.4898842 -0.09285442 0.78645575 0.6627245 1.4506453 -0.40147397 0.39417806 1.1080178 0.26009777 0.30824333 -1.0340717 -0.028200274 0.9149953 0.854899 -0.31717703 -0.6690775 -0.42338997 -0.19820954
la4b1 0.08678912 -0.6866084 -0.22635843 -0.40710667 1.2885586 0.686716 0.3769047 -0.5788455 -0.46511787 -0.4617678 -0.62677366 0.8196459 -0.7028977 -0.35960463 -0.6319147 -0.6089929 0.7306149 0.7739197 -0.12715119 -0.115032114 -0.40976864 -0.62668216 -0.08508164 -0.40526786 1.2735502 0.49417537 -0.36446366 2.3063931 -1.373784 1.1296135 0.60017353 -0.4378971 0.65380573 -2.0761073 0.12390416 -0.5652344 -1.2127687 0.46777132 -0.36185393 0.24251536 -0.5555527 -0.21118078 0.113201246 -0.5525195 0.47755396 0.082765445 -0.39849353 1.100087 0.15787989 0.55990905
mi5#1 0.8534734 0.23574561 0.21299143 0.27461046 -0.01812522 -0.6379383 0.26274917 0.10154766 -0.04924978 -0.68446887 0.2672739 0.101233214 0.36180136 0.75323695 0.5560393 0.47121707 0.91163975 0.63769084 0.14266762 -0.07894437 0.4722691 0.14482084 0.6078135 0.29306072 -0.00032890687 0.008688078 -0.6994991 -0.7589087 0.6331385 -0.095203064 -0.24797592 0.59176296 0.40780917 0.09921591 0.26905867 0.019811664 -0.16362658 0.19265413 -0.21249126 -0.21067569 0.6059744 -0.22162549 0.14511985 -0.5668769 0.0470356 0.61529136 0.3228032 -0.059439547 -0.26117104 -0.27095762
si4#4 0.14449416 0.2385764 0.1900698 1.1995009 -0.42801073 -0.57724154 0.5912629 0.12627146 -0.47098184 -0.4962454 0.62854296 -0.45412683 0.42626154 0.07861149 0.7096346 0.6301201 1.1966615 0.51409405 -0.58796483 0.6540756 0.24276832 0.15483852 0.71634775 -0.20621783 0.16010608 -0.3861417 -0.33934712 0.26688537 -0.3521322 -0.0802931 -0.25166738 0.42051828 -0.66794395 -0.036223967 -0.03480903 -0.020474097 0.49146494 -0.3768924 0.29939574 0.9110789 0.0943793 -0.34505597 -0.4939612 -0.9337853 -0.3315198 0.31215298 0.27399993 0.5493834 -0.04047251 0.3795632
do5#2 -0.7005002 0.1811956 -0.03693344 0.612851 -0.21563056 -0.7634891 0.23512581 -0.07818277 -0.656794 0.5859707 0.1539397 -0.6389942 0.6256702 0.1458942 0.68603635 0.45815182 -0.10058718 -0.09145178 -0.7888585 0.36604276 0.34348714 0.3158064 0.19756506 -1.1170528 -0.031813502 -0.517679 0.15931498 -0.7537272 -0.03900651 -0.29213765 0.30470365 -0.3333606 -0.22485471 0.6052003 0.057703003 0.4394521 1.0644522 -0.665858 -0.56677073 0.3576391 -0.7208495 0.10477451 0.024015188 -0.014394414 -0.28047043 0.6863127 0.16600639 -0.052239753 -0.5767505 -0.1015624
re5#3 -0.6073646 0.23571351 -0.7791329 0.38758397 -0.25271022 -0.9103944 0.09191123 0.019054566 -0.22980328 0.02730461 0.17045389 -0.59026885 -0.0033444823 -0.24202375 0.1860962 0.8433119 0.12989464 -0.10637307 -1.0492778 0.58755755 -0.18540774 0.0505794 0.6334324 0.015685266 -0.22665332 -0.50290734 0.51824814 0.24679816 0.08128667 0.10577642 0.097814314 -0.5076887 -0.667202 -0.06358292 0.17251708 0.06028418 0.83163774 -1.1710732 0.00028047778 0.76163924 -0.4202937 0.108902134 0.07895342 -0.3115627 -0.50820065 0.4859649 0.9305141 0.44474787 -0.46070895 0.16337585
sol5b3 -0.3879164 -0.84183276 -0.67985886 -0.0913362 -0.10015107 -0.52607757 0.057516117 0.3331598 -0.3436393 -0.84175676 0.3258075 -0.2570954 0.032479007 -0.22763163 0.15189359 0.5810069 0.05701292 -0.30249947 -1.3367852 0.052177154 -0.56098145 -0.02861045 0.7440969 0.04837588 -0.68495464 -0.38743052 0.14394458 0.7150685 -0.4080512 -0.113845974 0.012586829 -0.50833374 0.030583784 -0.5322558 0.6117483 -0.49250093 -0.20397265 -0.70104784 -0.7336723 -0.68658 -0.7225694 -0.002570099 -0.50967234 0.24599566 -0.13188764 -0.37245494 0.09196204 0.96742475 0.033310812 0.43209842
re6b3 0.2656548 0.26688918 -0.17222615 -1.010146 0.29362762 -0.38562998 0.3711082 -0.23086914 -0.9219749 -1.041494 -0.22036813 0.17786957 0.48678932 -0.14722534 -0.17894487 -0.6606878 -0.18584041 0.064973794 -0.3188516 -0.90489113 -0.08256574 -0.372751 0.07155375 0.62980855 0.6402295 -0.5128351 0.650199 -0.09852281 -0.02091004 1.2580042 1.1831617 -0.7162792 -0.164894 -0.17916404 0.82035583 0.63591343 0.4978742 0.2187754 0.6599587 -0.14957303 0.21498378 -0.16512161 -0.4623543 0.08814764 0.64945734 -0.23124877 -0.7102866 -0.2841915 -0.21671757 0.30426443
fa6 -0.09778662 0.08305561 0.05294921 -0.16928096 -0.16125277 -0.2945301 -0.11122617 0.08251812 -0.46751463 -0.44852307 0.11492515 0.07845684 0.070793815 -0.25705224 -0.08012464 -0.14132193 -0.16828577 0.13122074 -0.35281813 -0.5860297 -0.15551482 -0.0011729873 0.6069518 0.15022278 0.31486923 -0.22981788 0.22563493 0.1291744 0.13711452 0.36112902 0.28004113 -0.56850463 0.0038896194 -0.06473903 0.38085303 0.0751977 0.3095998 0.14306764 0.30360258 -0.08194627 -0.37691084 0.30297962 -0.2845287 0.16886555 0.6336807 0.020793676 -0.43046212 -0.14258021 0.25571924 0.1363147
sol6 0.38750762 -0.21525696 -0.34317255 0.21830526 -0.17149162 -0.4823622 -0.29939967 0.24134648 -0.63520616 -0.11956433 0.23321977 0.52315867 0.33362055 -0.36948544 0.045721706 -0.0611221 0.2544159 -0.27297214 -0.8043176 -0.85510224 -0.17730649 -0.09067833 0.5235301 0.20270106 0.282174 -0.8414343 -0.14826483 0.41238675 -0.4278177 0.5707074 0.64065504 -0.5137587 -0.15676558 -0.13346383 0.26048258 -0.019394517 0.24453124 0.39878637 0.37144598 0.02117673 -0.32960606 0.16974656 -0.20921828 0.26420936 0.8319408 0.11881343 -0.43229827 -0.29210648 -0.050207544 0.28954595
do6b3 0.6566528 -0.075297296 0.11387471 0.27301636 0.23618 -0.93723977 -0.4177243 0.51737565 -0.6725343 -0.546987 0.15809941 0.094898984 0.14245468 -0.76600087 -0.23302405 -0.018905312 -0.09860562 -0.70804137 -0.97685546 -0.43262374 -0.61631113 -0.25977185 0.4062796 0.4978371 -0.79814816 -1.0146825 -0.17068565 0.43945086 -0.8686849 0.17898297 0.8113498 -1.0592145 -0.40079823 -0.6418347 -0.32927713 -0.22097372 -0.25589517 -0.18241459 -0.17061765 0.32652783 -0.7631583 -0.24849354 0.11252258 0.33555105 0.52941877 0.10985264 0.5179104 -0.095639616 -0.093363695 0.12304258
la4#1 -0.00934343 -0.15704566 0.044098366 0.11572726 0.08025935 -0.26513383 -0.26727754 0.0037514537 -0.14576332 0.21608573 -0.09167073 -0.15938012 -0.017519511 0.2383987 0.117704675 0.24616067 -0.007876676 0.1366007 -0.30819643 0.18207869 0.05102611 0.2066772 0.15831408 -0.49282023 0.35328782 -0.0070773615 0.06575583 -0.16532007 -0.10870082 -0.1643951 0.19089355 -0.18493798 0.042689595 0.07372574 -0.11425942 0.08380887 0.39379516 -0.15023732 -0.14584053 -0.03882705 -0.455121 -0.21992333 0.04277695 -0.039429594 -0.06404424 0.13559912 0.10387862 0.14184716 -0.108896986 0.22211811
do5#1 0.018126722 -0.06530205 0.11450242 -0.0075999387 0.08666084 -0.17397684 -0.33517215 0.13312745 -0.089589514 -0.03807769 0.2836006 -0.36940646 0.03615985 0.2802909 0.054981552 0.14972238 0.0906787 0.28224605 -0.061651893 0.021639677 0.19464338 0.15988852 -0.10181024 -0.1934574 0.012272084 -0.15897013 -0.22610027 -0.15072636 -0.1532193 -0.18098518 0.15414332 0.13153662 -0.23306845 0.017025068 -0.05920319 -0.061254706 0.083665244 0.17150195 -0.011769928 -0.28098446 -0.2168513 -0.22294809 -0.14444904 0.052069437 -0.17545299 0.121066704 -0.38690862 -0.17898707 -0.04944084 -0.06511983
si4#1 -0.16207998 0.43986857 0.49689662 -0.42956725 0.32652432 -0.24770081 0.1416166 -0.23673534 -0.3953024 -0.436493 0.23920035 0.09992607 0.14897071 -0.23208624 0.55349594 -0.34941676 0.14400174 0.6686903 -0.42740083 -0.19637398 0.10722596 0.6324607 0.10953424 -0.8005653 0.694293 0.031446297 -0.041651677 0.05735371 0.0624073 0.2682441 0.32357132 -0.47813258 -0.3070514 -0.5562705 0.21794464 0.33045128 0.2329146 0.2999101 -0.0512828 0.043944996 -0.30432174 0.03165966 -0.01746552 -0.11617194 -0.022312835 -0.08148656 -0.6496561 0.24773537 -0.3585652 0.14698978
mi5#2 0.18163702 0.031845428 -0.017107649 0.18420324 -0.08939851 -0.020714402 -0.033343967 -0.0958561 -0.010175648 -0.14278458 0.5968666 0.25326803 0.102591366 0.1323142 0.20682015 0.14549817 0.14054254 0.09020246 0.1102322 -0.11226609 0.1516327 0.016424473 0.10140422 0.16027252 -0.078283675 -0.040204912 -0.54398686 -0.3934719 0.4138733 -0.46751547 -0.026627114 0.05803392 0.3593364 0.098201916 0.21081124 0.10611625 -0.19521591 0.07473824 -0.29529956 -0.17482722 0.18636447 -0.13927238 -0.23295702 0.0045919656 -0.046319015 0.32903725 -0.3591182 -0.261461 -0.25393057 -0.24144337
la4b3 0.032461863 -0.42825323 -0.3665629 -0.050047934 0.08826549 0.20271327 0.046333455 -0.13326386 -0.21256131 0.033782683 -0.0807578 0.10088888 -0.05170291 0.065491654 -0.23205876 0.14367875 -0.012129747 0.07665978 -0.25503758 -0.3655479 -0.011664962 -0.15127216 0.058454465 -0.30520317 0.11067471 -0.07340708 0.029913884 0.03051193 -0.4238156 0.20805916 0.1440138 0.026447847 0.18652466 -0.3168247 0.03780375 -0.058695715 -0.21953309 0.043962438 -0.12331958 -0.23534144 -0.36069557 -0.0044636982 -0.17510481 -0.01675579 0.17818373 0.056199525 -0.15866973 0.2861383 0.05889966 0.18754107
mi4b3 -0.03015182 0.13645735 0.03490809 -0.4761053 -0.45496908 -0.17398559 -0.10720236 0.2527882 -0.387124 -0.053026043 0.27864432 0.07210748 -0.03331186 -0.22251555 -0.2405252 -0.3136816 0.23193637 0.28618357 0.17846374 -0.17038302 0.18556724 -0.21150102 0.08288944 -0.4284887 -0.2461534 -0.50762385 -0.30406222 -0.09819777 -0.015276284 0.23283805 -0.32277188 -0.27162033 -0.21319489 -0.028624356 -0.2666149 -0.32882634 0.2553856 0.15427206 -0.15463792 -0.031225555 0.07217868 0.0005275338 -0.10392876 0.18501438 0.11795483 0.10779032 -0.43943974 -0.3614728 -0.36825392 0.029462894
sol5b5 -0.14816353 -0.3377803 -0.6058008 0.50341797 -0.029375674 0.052324638 0.18873137 0.073052146 -0.5396739 -0.09110438 0.21794136 0.16679938 -0.080710016 -0.038709372 0.030450674 0.12193424 0.47756526 -0.14022367 -0.60542715 0.11870058 0.0673143 -0.04969916 0.08341059 0.18886313 0.3231011 -0.36141986 -0.22470982 0.42492247 -0.5947554 0.026262179 0.34209436 -0.06543867 -0.028929804 -0.48037532 0.07113107 -0.14991413 -0.23917641 0.07942555 0.10363913 0.009375545 -0.27618247 0.22670375 -0.26278183 -0.31450564 0.27627432 0.08701673 -0.21346362 0.34221366 0.10107579 0.31421462
do6b4 0.2176976 -0.081657 0.008475557 0.17258327 0.14851578 -0.79586804 -0.25891915 0.61425436 -0.6500184 -0.45390648 -0.0047427625 0.0033470572 -0.14367184 -0.6001162 -0.20332348 -0.22371882 0.22280967 -0.3736078 -0.6451461 -0.29225042 -0.45992607 -0.1800783 0.4814339 0.3940354 -0.08219086 -0.5136215 -0.32121676 0.4682416 -0.69959915 0.16757494 0.65301454 -0.65960497 -0.03945161 -0.5673491 -0.19746478 -0.12694888 -0.030038 0.020503392 0.21365346 0.17702912 -0.41651213 -0.15697296 -0.19272524 0.081740476 0.47440463 0.06424755 0.528636 -0.0114285 -0.021265205 0.2617733
re6#4 0.11823418 -0.038114697 -0.017996596 -0.2687011 -0.3423785 -0.28706282 0.03783474 0.026233356 -0.24049762 -0.42540085 0.019775912 0.3381609 0.1965962 -0.32298356 0.26639363 -0.15930611 0.2198131 0.08866293 -0.31085405 -0.53794855 -0.056018125 -0.0023247388 0.47918412 0.24009028 0.42781487 0.09101575 0.04619536 0.08348336 0.014464356 0.57719946 0.25503272 -0.20709269 -0.067843355 -0.09470638 0.3345998 0.27233383 0.36069074 0.04633626 0.17005457 0.20634386 0.111223415 0.07000256 -0.43699536 -0.045272857 0.4586431 -0.057940125 -0.07727443 -0.14697754 -0.061086714 0.17300305
si4#3 -0.15660638 0.011418187 0.16579047 0.16980791 0.0053294934 -0.24701828 0.0070105707 0.19331966 -0.14490332 0.09523553 0.06040479 -0.40679514 0.13995458 0.23085624 0.14962383 0.102973714 0.2059203 0.065989695 -0.19150114 0.03885741 0.15416287 -0.09182047 0.26968879 -0.08008865 -0.18196793 -0.25322783 -0.0043207295 -0.17019801 -0.2168577 0.118596606 0.20295683 0.31820104 -0.2074661 0.058017153 0.072605975 -0.039685175 0.3855061 -0.027724216 0.1275546 -0.050417878 -0.1577794 -0.08447312 -0.08818129 -0.24695875 0.121401645 0.2071139 0.08883564 -0.113267705 -0.06902134 -0.17868154
do5#8 -0.06115406 0.05738145 -0.2653948 0.46025038 -0.13905703 -0.90514505 0.6323366 -0.005823769 -0.65110135 -0.46595705 0.18917707 -0.40884146 0.14050291 -0.31825244 0.19621524 0.47976005 0.73853517 0.5187304 -0.51177573 0.5843572 0.16090624 0.20093621 0.5538833 -0.13802774 0.43613133 -0.24831001 -0.07063575 0.18521377 -0.28929338 -0.27497408 -0.0576061 -0.37859106 -0.015852729 -0.31341225 -0.26981047 0.18505113 0.36013037 -0.67815137 -0.062121555 0.8713886 0.105302826 -0.49441606 -0.27000386 -0.6473252 -0.39319274 0.69784987 0.3675335 0.63423395 -0.10536588 0.5028846
la3 0.054930482 -0.06275991 -0.16837713 0.030270746 -0.42618957 -0.41550216 0.25663763 -0.026367659 -0.75500095 -0.4540546 0.43930894 -0.027030794 0.008725172 -0.20015417 0.026621649 0.19635029 0.29839027 0.2270386 -0.22096284 -0.2123979 0.090851806 -0.032686427 0.42892396 -0.16159794 -0.31895503 -0.7726748 -0.10722026 -0.03480452 -0.10266081 0.18916373 0.087104715 -0.16262332 -0.04297325 -0.8585352 -0.21512243 -0.30070442 0.1368355 0.32873386 0.007210184 0.15125161 0.3212323 -0.001205199 -0.16008553 0.032010943 0.5963965 0.46578738 -0.5299461 -0.06438417 -0.23200122 0.2555995
mi6b4 -0.14560296 -0.031185972 -0.06587358 -0.07999513 -0.06641518 -0.39776692 0.0752663 0.10726078 -0.41569906 -0.25208005 0.07525211 -0.059896216 0.043613434 -0.29320902 0.019007765 -0.11612996 0.11282653 0.056582358 -0.2718103 -0.31114507 -0.17649625 -0.04090261 0.29673198 0.2645008 0.26064482 -0.18100388 0.007105926 0.4416463 -0.07108263 0.22001486 0.27643478 -0.43940538 0.14526476 -0.09419123 0.30444765 0.085480936 0.24647573 0.2429532 0.234683 -0.014422894 -0.010063786 0.11107406 -0.04026761 0.050265767 0.37369263 0.023786958 -0.24472302 -0.048484564 0.1261888 0.22593048
si3b1 0.109002545 -0.10279975 -0.07830399 0.002945965 0.051123176 -0.40987372 -0.4087566 -0.13636714 -0.019470802 -0.211772 0.07634675 -0.23943344 -0.32696462 0.23779953 -0.12718265 0.34643146 0.008601903 0.32216433 -0.11856182 0.18790731 0.021141492 0.3944384 0.25683963 0.42843857 0.4773507 0.38286963 0.07342703 0.12830208 0.3251393 -0.035516284 0.35358435 -0.03371192 0.22414567 -0.34787917 -0.23503712 -0.11522781 0.2914263 -0.06260608 0.15807411 -0.17693374 -0.21272296 -0.18149994 0.09893135 -0.2455335 -0.16119376 0.26886165 0.14028321 -0.019095358 -0.19831418 -0.06867683
mi4#1 -0.20338292 0.06761402 -0.14671779 -0.33605987 0.19173971 -0.49027038 0.0391171 0.35037124 -0.27519357 0.06192189 -0.17956366 -0.056541804 0.042650506 -0.10644848 0.12553164 -0.14579257 0.4129102 0.20953627 -0.57512623 -0.41758502 -0.004503258 -0.17987944 0.51710314 -0.18018147 0.21272457 -0.29845202 0.13037546 -0.31306767 -0.43796825 0.14660591 0.377706 0.11473903 0.0033256575 0.13861912 0.43459624 0.27738106 0.49154034 -0.019099195 0.15267278 -0.01133261 -0.01603774 -0.46021333 -0.41180483 -0.30120322 0.29980785 0.40951464 0.40120685 0.03183384 -0.022988085 -0.1377864
fa6#4 0.14337161 -0.13513835 -0.17379937 0.062581554 -0.13961193 -0.31781182 -0.1198042 0.103507146 -0.41106278 -0.1797682 0.09698793 0.14889865 0.1586932 -0.15815236 0.045693763 0.0070208954 0.09437216 -0.09030672 -0.315085 -0.4109641 -0.09755891 -0.058338165 0.24748904 0.16993922 0.15363598 -0.3782906 -0.07383981 0.21986061 -0.19447316 0.3219747 0.39594764 -0.2502179 0.0048636883 -0.075034 0.24177097 0.03282769 0.16366725 0.28549302 0.19881465 -0.07715372 -0.090419404 0.09966218 -0.082758196 0.08688899 0.44094855 0.1004603 -0.22524872 -0.15895253 0.046030436 0.14577182
re6b5 -0.09477758 -0.14516276 -0.18969323 0.047279786 -0.09461451 -0.13293669 0.07050096 0.1365779 -0.12059623 -0.106504574 0.08141308 0.0041357847 -0.061321884 -0.15553936 0.06605234 0.03900517 0.06015138 -0.15112022 -0.12882252 -0.18356518 -0.08285069 -0.2039518 0.1953884 0.14180669 0.09467434 -0.07643691 0.013098743 0.09979129 -0.24022509 0.02126585 0.13060595 -0.09933291 0.051612794 -0.019319888 0.2241348 0.09841402 -0.08197697 0.01986341 0.08973851 -0.11478749 -0.1425331 0.10385244 -0.12215633 0.021790294 0.05642705 -0.008574964 0.12573443 0.17460413 0.16605292 0.24866238
sol3 0.028040836 -0.16427068 -0.19410758 0.10795813 -0.29204807 -0.19364673 0.15808272 -0.044182565 -0.52795744 -0.311016 0.23133822 0.05844843 0.018890169 -0.095256664 -0.0831546 0.062064752 0.17519395 0.08124093 -0.17287736 -0.08689879 0.063484475 -0.039611958 0.22332303 0.0011619768 -0.23458216 -0.54363513 -0.12137546 -0.07917727 -0.12313343 0.12299956 0.13785058 -0.083004296 0.07055791 -0.6509812 -0.11256391 -0.24986708 -0.0033105153 0.25572836 -0.02304772 0.05157024 0.15671417 0.079957545 -0.14665641 -0.04195901 0.5146982 0.3121126 -0.31263825 -0.0024687678 -0.094624646 0.12242914
mi4b1 0.003489739 0.12723173 -0.063133046 -0.2295222 0.15168734 -0.34308308 -0.050927784 0.10210478 -0.016454488 -0.21269804 0.47796932 -0.098028995 -0.16415106 -0.26341084 0.0028034274 0.09912412 0.31844878 0.20651138 -0.035282165 -0.20741703 0.26880577 0.07217917 0.31660348 -0.31103683 -0.006083041 -0.38308525 -0.107863046 0.02388579 -0.2217878 0.047367685 0.07611963 -0.035261683 -0.06053156 -0.29951003 -0.11233029 -0.28810593 0.0028332926 0.26409394 0.0041265613 -0.10998324 -0.084799215 -0.023470629 -0.107782304 0.07131324 0.22460702 0.4082672 -0.41799438 -0.1285606 -0.043041926 0.17616506
si3b5 0.03324067 -0.029694278 -0.049407132 -0.020948447 -0.26206163 -0.39182088 0.25585577 -0.0052482868 -0.5960917 -0.3813092 0.35628667 -0.0660979 -0.013039257 -0.25598112 -0.020516811 0.10557711 0.219411 0.15007362 -0.08003184 -0.25051266 0.092177324 -0.07048608 0.38527012 -0.23581888 -0.2555405 -0.6061282 -0.106111415 -0.0415694 -0.20315808 0.17153712 0.071819 -0.10823768 0.03302521 -0.7256885 -0.19024402 -0.25464222 0.12161833 0.33554536 -0.062102795 0.05681054 0.19452325 0.038154542 -0.11730905 0.05699538 0.47879222 0.38261473 -0.47900024 -0.009283501 -0.12284869 0.22251798
mi6b1 -0.30719772 -0.121680744 0.028000407 -0.12866077 -0.14023218 -0.36519736 -0.0025514192 0.05314951 -0.5060239 -0.26060954 0.027223956 -0.2007692 -0.06141669 -0.11894997 -0.047627818 -0.111434914 0.045254167 0.20878787 -0.30486587 -0.27752718 -0.1477494 0.05984329 0.3204922 0.019189274 0.13060592 -0.045109313 -0.074228995 0.073988214 -0.10614587 0.19350348 0.32687157 -0.32460424 0.13587728 -0.09414952 0.10680918 0.074280344 0.1834466 0.012095623 0.10808294 0.0315288 -0.025650326 -0.050969906 -0.30612606 -0.17688541 0.10460285 0.128726 -0.12013959 -0.017276661 0.04343936 0.04896178
si5#1 -0.045817133 -0.20020011 -0.0014003275 -0.06264905 -0.022728069 -0.31610024 -0.088893026 0.06877339 -0.012052816 0.09643161 -0.107690744 -0.02278728 -0.01814296 0.1395319 0.12457015 0.12072897 0.16113783 0.07754393 -0.17810777 0.008284112 0.019830635 -0.098700024 0.4338744 0.029692803 -0.070451856 -0.07002369 -0.042253777 -0.10026977 -0.14947937 -0.0047015147 0.14479914 -0.07601918 0.101775974 0.06839938 0.18281396 0.08487108 0.15920742 -0.08749891 -0.07595851 0.086942665 0.03923707 -0.17980367 -0.012921655 -0.27112162 0.1915916 0.500615 0.12439951 0.033788122 0.08605528 -0.0929724
do6#2 -0.1325585 0.033718742 0.1468391 -0.2876536 -0.08072556 0.0026653935 -0.0073672286 -0.016066251 -0.25856516 -0.44608197 0.19992882 0.1789089 -0.15798184 -0.14936534 0.00014785858 0.07759329 -0.1331761 0.025892321 -0.32847193 -0.22555119 -0.18803208 -0.14591312 0.7586902 0.24313733 -0.06388149 -0.11814445 0.21298452 0.13434629 0.06018902 0.2053829 0.25564 -0.5517221 -0.08140295 -0.15200277 0.26074615 0.08486581 0.14108638 -0.29743528 -0.09487832 0.031164296 -0.2572627 0.044982567 -0.30743033 -0.18901955 0.25191012 0.2763082 -0.44505787 -0.111405574 0.018795872 -0.14290097
re6b1 -0.06817853 -0.027761528 0.0705062 -0.08476678 -0.07551377 -0.16604784 0.048404858 -0.01983286 -0.20914857 -0.26919273 0.121677734 -0.050956506 0.055920154 -0.036393173 0.045978732 -0.09286701 0.08910124 0.1695006 -0.17785293 -0.08799906 -0.060948998 -0.05607136 0.122863166 0.14252901 0.02043391 -0.025125045 -0.09192074 -0.023310356 -0.020397514 0.082691714 0.19022457 -0.25174406 -0.05420116 -0.1195975 0.10350429 0.08464744 0.07488879 -0.07354677 0.033105362 0.08883924 0.020541063 -0.113995045 -0.17394523 -0.15620646 0.06976255 0.049056422 0.0013113136 -0.02282676 -0.06688599 0.07913264
la4#8 -0.12133137 -0.035052102 -0.15637937 0.16391732 -0.14966863 -0.26270273 0.21953909 0.07441955 -0.4118551 -0.19707812 0.049229156 -0.1448947 -0.026506811 -0.13117188 0.096960336 0.17308713 0.32151806 0.171605 -0.3422176 0.10078116 -0.02662391 0.06711037 0.25743514 0.036848206 0.19716692 -0.12983452 -0.07110237 0.11194925 -0.193738 -0.057199284 0.0546725 -0.19486026 0.023127291 -0.08637664 -0.009394209 0.040388297 0.16410825 -0.17658354 0.0015972821 0.22837134 0.042815857 -0.16455434 -0.20625024 -0.25894114 -0.09695459 0.22257064 0.08158733 0.14011922 -0.06438264 0.18496586
sol4b4 -0.07729593 0.025820673 0.022982758 -0.024652997 0.11017394 0.00018230641 0.11914542 0.027548814 -0.17184478 -0.07504273 0.079348855 0.008651557 -0.1209955 -0.09372529 0.018312154 -0.042329896 0.13526145 0.112604946 -0.08228033 -0.21991365 -0.043034714 -0.1757193 0.19285706 -0.2279885 0.17057785 -0.040968087 0.016712068 0.21117947 -0.29380685 0.15104061 0.09886979 -0.13854668 0.072846375 -0.19741037 0.006385227 0.040951155 -0.026940169 0.106593825 -0.061444398 0.057063054 -0.10394099 -0.043672223 -0.13049679 -0.057820044 0.1237104 0.21166122 -0.109732784 0.04541893 0.06569514 0.12721814
si3 -0.022264186 0.098956585 0.009738146 -0.10850953 0.0062563065 -0.14412408 0.1095764 0.060574118 -0.16013496 -0.10553176 0.114159636 -0.101509646 -0.016296832 -0.09627889 0.005577854 0.03311145 0.05166046 0.0873949 -0.05922336 -0.14840274 0.028997306 0.035372753 0.10127761 -0.17643587 -0.082437 -0.22202136 0.06306211 0.010716212 -0.05283946 0.023851715 -0.016291855 -0.06436874 -0.080793224 -0.2446255 -0.058654197 -0.04105571 0.1490345 0.12500885 0.023880402 0.04837676 0.10743318 -0.008953122 -0.049843617 0.092390746 0.17775017 0.08834957 -0.17201139 0.021543607 -0.06068695 0.09693535
sol5#5 -0.05832029 -0.15233189 -0.034471225 -0.07696159 -0.108495824 -0.24391149 -0.12664357 0.12902507 -0.07519602 0.111874625 -0.11755466 0.04248393 -0.07232463 0.06604654 0.027740179 -0.037579127 0.19560426 0.061097212 -0.19964394 -0.0044356594 0.053960096 -0.07899842 0.32497317 -0.12821522 0.062612385 -0.18777837 0.059595156 -0.03601018 -0.1595245 0.07418453 0.046444926 -0.015132815 -0.043649763 -0.017485712 0.12732252 0.071615495 0.36612734 -0.18529856 0.0015923176 0.25195372 -0.0006562845 -0.18594377 -0.24805315 -0.19808422 0.20927414 0.34483203 0.108540624 0.05516599 -0.0028964751 0.067525126
si3b2 -0.15948519 0.002018949 -0.06457499 -0.12210721 -0.1288813 -0.19851348 0.0482029 0.0512033 -0.30634987 -0.16765358 0.057895012 -0.1344126 -0.05667152 -0.1381245 -0.007184469 0.03472794 0.04147845 0.12448644 -0.19001086 -0.10040393 -0.09559889 0.025932962 0.25123733 -0.0028638442 -0.0673412 -0.18253857 0.058864113 -0.06645379 0.013991299 0.04618795 0.09174261 -0.16473128 -0.0032471612 -0.16087371 -0.039947577 -0.028596943 0.15812166 0.022551527 0.08212607 0.00483293 0.08878213 -0.12916645 -0.14198595 0.0039645135 0.08568616 0.12059974 -0.06942256 -0.05405651 -0.11076137 0.06012828
sol5b2 -0.15503974 -0.08314255 -0.012051117 -0.07474317 -0.12813148 -0.2654646 -0.05393501 0.011444166 -0.3211335 -0.18415183 0.039379105 -0.07325645 -0.04821466 -0.10669537 -0.07961159 -0.09656275 0.015160508 0.009038368 -0.23477462 -0.07156898 -0.095921405 0.00046794026 0.22400422 0.2374409 0.021706538 0.08452094 0.081644624 0.0600425 -0.09568663 0.14595114 0.2620725 -0.15849498 0.07543245 -0.11155699 -0.034364916 -0.009594852 0.048850235 -0.05668803 0.0065992726 -0.071644396 -0.11566077 -0.062424496 -0.060592264 -0.12977055 0.14696397 0.118525624 0.12509099 -0.0035825542 -0.016514398 -0.141528
si4b6 -0.0037593269 -0.068321966 -0.016851835 0.018111628 -0.020245953 -0.015427321 0.011389524 -0.005770001 -0.18654028 -0.07244557 -0.034411058 0.04283788 -0.081105344 -0.03182122 -0.022897052 -0.008080756 0.06487152 0.010346069 -0.105000295 0.011467462 -0.095013455 -0.08845313 0.07805321 0.038484354 0.05657013 -0.035935696 -0.038404454 0.13175327 -0.11210864 0.09253528 0.11178345 -0.07909882 -0.05171417 -0.09159641 -0.019897932 -0.02216373 -0.026752831 -0.010150551 -0.00046152587 0.075662754 -0.03071026 -0.06327106 -0.07963329 -0.08090828 -0.012359773 0.0687362 0.000600524 0.02259945 -0.060775876 0.0072225123
do5b4 -0.063685276 -0.094334655 -0.06693885 -0.0258632 -0.019819222 -0.090421036 0.025584484 -0.062130447 -0.2405719 -0.093343854 -0.03597819 -0.018537818 -0.044177104 -0.0463079 -0.058892094 -0.004107968 0.03297578 0.11185449 -0.14689839 -0.1451442 -0.0017563428 -0.031667948 0.10515396 -0.059816703 0.115017414 0.01829663 -0.03354012 0.12237749 -0.1627122 0.17526701 0.19617386 -0.101136595 0.049335487 -0.18698442 0.014943956 0.027786328 0.012764364 -0.050896984 -0.079318166 0.098129325 -0.14654738 -0.04083411 -0.13162714 -0.06494417 0.09200832 0.12124921 -0.009966591 0.042302303 0.004616412 0.041151144
do6#5 -0.095865935 -0.10422906 -0.016319897 -0.078845024 -0.07387018 -0.16563293 -0.073366754 0.05379837 -0.121941425 -0.016352512 -0.035815164 0.047052424 -0.07036056 0.020609554 0.015228631 -0.055153478 0.10111667 0.11903332 -0.19713254 -0.03205556 -0.028466323 -0.02864292 0.3066094 -0.044353884 -0.009786963 -0.11285595 -0.026566736 -0.078377455 -0.0863262 0.07740224 0.11835055 -0.081085905 0.06543379 -0.057778493 0.14428104 0.02646931 0.14747225 -0.07251226 0.00462228 0.074057534 -0.02945343 -0.10743069 -0.16560973 -0.1943952 0.13773201 0.2431497 0.034324463 0.08098137 0.045679715 -0.048820656
mi4b2 -0.1059036 0.032349013 0.036418807 -0.09804179 0.045277014 -0.15205841 0.13723414 0.04350149 -0.13051298 -0.11766249 0.109570876 -0.11938987 -0.09627151 -0.14379513 -0.032346915 0.028310161 0.08290656 0.05385168 -0.109155566 -0.27991247 0.005427963 -0.05526928 0.27894276 -0.14422178 0.037274335 -0.011067676 0.05826871 0.058112167 -0.18179578 0.086816706 0.08208297 -0.050391883 0.084347844 -0.16285057 -0.025114672 0.051177226 0.053609066 0.028366568 -0.014344325 -0.04172221 -0.04687626 -0.0071290196 -0.1342407 -0.049950898 0.100234225 0.15216807 -0.011069735 0.058055762 0.009807779 0.10829385
la4#2 0.043555446 -0.05148862 -0.20019923 -0.19828166 -0.116902605 -0.05791201 -0.04785058 0.008886784 0.095075406 -0.0048059532 0.008273762 0.025346113 0.019288225 -0.03576744 0.057474826 -0.053665034 -0.121558785 0.056295235 0.02190252 0.043492276 -0.015973587 -0.038540293 -0.020112514 0.040532876 -0.06891907 -0.13688615 0.104232274 -0.19677581 0.02389968 -0.009048782 0.0059416927 -0.01066205 -0.0018968853 -0.03915448 -0.016235026 0.023072528 0.11377869 0.007722424 0.051667616 -0.1356258 -0.15501705 -0.07321915 -0.015984729 0.03194623 -0.14763592 0.021575589 -0.0018049894 0.0844859 -0.04460445 0.007610613
fa4#2 -0.1676988 0.13733402 0.10403285 -0.05209793 0.07765382 -0.18612498 0.18753047 -0.092106886 -0.32929593 -0.24425283 0.013304113 -0.13481495 0.05323503 -0.05945967 0.057593524 -0.0269272 0.035340697 0.11984736 -0.23127484 -0.1366387 -0.08658817 0.15266436 0.15123875 -0.18084769 0.09713027 0.035868317 0.06424732 -0.011565382 -0.020692347 0.048063334 0.18203579 -0.25562158 -0.04401012 -0.32737055 0.0071279984 0.1058495 0.03901845 0.058601093 0.028730033 0.101759024 0.0835963 -0.011081416 -0.016890574 -0.06599019 0.08340766 -0.00319542 -0.0052469354 0.18409228 -0.09641153 0.105264045
la5#5 -0.07763023 -0.029360749 -0.019633416 0.0036289962 -0.044227142 -0.14914918 0.00069214846 -0.004534003 -0.21666376 -0.126807 -0.024621023 -0.028827226 -0.019425943 -0.06261804 0.0030861266 -0.036013186 0.022402013 0.012910205 -0.16575864 -0.067600094 -0.086958595 -0.017919911 0.11305815 0.022720877 0.009008168 -0.07013886 -0.0570439 -0.033310298 -0.149536 0.10265447 0.17884697 -0.1422214 -0.0021078456 -0.03711379 0.016449038 0.06525913 0.029480109 -0.013233715 0.031363435 0.059127565 -0.026170235 -0.07760297 -0.10759526 -0.0512477 0.008332774 0.07943931 0.03616418 0.044999376 -0.026198735 0.027878629
do7 -0.031885598 -0.04383503 -0.06873293 0.08531093 -0.08676374 -0.14786695 0.010070922 0.040278677 -0.24468789 -0.13493252 0.06097306 -0.015798705 -0.01148858 -0.07141757 0.0059274165 -0.020221544 0.0959821 0.031516686 -0.22204189 -0.08307974 -0.04014017 -0.0012182532 0.14140713 0.16827492 0.13085115 -0.07296941 -0.14284517 -0.026363213 -0.14280967 0.052731458 0.17268348 -0.13411136 0.056461148 -0.122661665 0.050220523 0.04077286 -0.003407532 0.048086397 0.04600816 -0.04781031 -0.06513223 0.02133646 -0.073227204 -0.12663345 0.063130595 0.07917097 0.044202928 0.012375361 -0.02495022 0.041782126
si6 0.015025093 -0.02689624 -0.06939388 0.047306366 -0.0872674 -0.1272592 0.020145478 0.02832097 -0.18376221 -0.0699704 0.065097004 0.019423753 0.009528728 -0.08038765 -0.006966441 -0.010598083 0.06780796 -0.005446143 -0.21280164 -0.10518374 -0.03254669 -0.004913983 0.10156671 0.14521742 0.14765847 -0.117119804 -0.10762331 -0.0009420433 -0.13561472 0.040912915 0.17709202 -0.123283535 0.05689296 -0.12499386 0.066635154 0.050914705 0.037230864 0.06897578 0.07779695 -0.08619685 -0.05869588 0.03568922 -0.05273732 -0.07681159 0.09212779 0.06049858 0.037630063 0.009297838 -0.028598499 0.04187761
sol5#1 -0.10883553 -0.015052059 0.028406419 0.0012697775 -0.0592098 -0.11497342 -0.03155553 0.038075563 -0.10752087 -0.06271261 -0.004763537 -0.08795126 -0.019967621 -0.017226513 -0.06551638 -0.009833802 0.05441971 0.009357643 -0.09840201 -0.03587637 -0.018266924 -0.014794923 0.10365703 0.030226275 0.0052769445 -0.009620656 -0.025182698 0.036698062 -0.066524126 0.03206217 0.0434497 -0.051785275 0.017237684 0.0027515856 0.026312195 0.022016743 0.1445229 -0.05995652 -0.025046937 0.06212598 0.011832272 -0.026411189 -0.10381092 -0.0794373 0.05945615 0.0634229 0.025141468 -0.016046092 0.020024968 -0.006111327
sol4#5 -0.080917545 0.06065486 -0.059197962 0.07556118 -0.020753387 -0.05916391 0.01886369 -0.08369115 -0.090438835 0.05024341 0.05304585 -0.015862394 0.016675012 -0.02080095 -0.0045755743 0.019699892 0.029313834 -0.004558102 -0.0899602 0.087272696 0.03459058 0.017708799 0.043293167 -0.005720553 0.08156986 0.07328135 0.09341873 0.023558257 -0.033413403 0.001623853 0.0923583 0.06920163 0.0016385189 -0.033184607 -0.10300375 -0.035178874 0.0117418235 -0.043781728 0.016919572 -0.015771218 -0.120220184 0.021747781 0.10122772 -0.05417995 0.024086725 0.094402 0.09922154 -0.00878939 -0.040282235 -0.097207695
la5#1 0.046350345 -0.024445964 0.000613182 -0.09228563 0.038720105 0.019152444 -0.006138922 -0.01608077 -0.10644484 -0.065012254 0.04624278 -0.019398123 0.051153157 0.02395595 -0.07928973 -0.014554458 -0.044443116 -0.105080165 0.0062622614 -0.060906537 -0.00018961489 -0.07113194 -0.019411212 -0.025094809 -0.030764934 -0.0848152 0.042929813 -0.10937798 0.059501726 -0.008335443 0.06727081 -0.056112833 0.0073210713 0.019513594 0.016826397 -0.011737735 0.010841041 -0.05284137 -0.07890786 -0.14958364 -0.08130733 -0.045377355 -0.036903884 -0.0074625155 -0.004091304 -0.0242613 -0.054430634 -0.0727734 -0.095267564 0.020694142
do5#6 -0.17876443 0.0028350696 0.0054642647 0.006624647 -0.021109588 -0.06289527 -0.011209069 0.0060454826 -0.15031782 -0.034315992 -0.027554875 -0.09149585 -0.048713557 -0.042741083 -0.025973998 -0.027245475 -0.083926104 -0.0053773597 -0.06110527 -0.067902975 -0.08050772 -0.010423593 0.05024931 -0.015608061 0.004167747 0.03342435 0.032852475 0.05806613 -0.066260606 0.053285502 0.12778227 -0.17645235 0.04470889 0.0071620545 0.0378035 0.08553253 0.08378957 -0.06643765 -0.037581395 0.07073535 -0.09428979 0.043043997 -0.07489588 0.0013748945 -0.005996912 0.07545345 0.0017791546 0.020618472 0.06879393 0.008199634
do5b1 -0.056029215 -0.0853031 -0.08481518 -0.003646267 -0.07671636 -0.038477093 0.056717627 -0.034260117 -0.23893495 -0.00552997 -0.006191159 0.044713292 -0.10014639 -0.1364471 -0.05898215 -0.02315569 0.084110394 0.061847847 -0.10688252 -0.090665214 -0.07834494 -0.062296987 0.05270758 -0.03333641 0.15795697 -0.012491948 -0.013555372 0.15226601 -0.15390502 0.07929634 0.08583288 -0.06596404 0.10424534 -0.08844126 0.08041241 0.025688011 0.084918424 -0.029944714 0.014295672 0.0011127129 -0.07649808 -0.08264355 -0.116725944 -0.061995428 0.057809893 0.016229875 -0.077664256 0.10939071 0.022557646 0.067643225
sol4b1 -0.06844718 -0.11707934 -0.086323306 -0.022041565 -0.067883365 -0.0482003 0.04403777 0.0010994878 -0.18151985 -0.09768023 0.07175952 0.04965564 -0.06997505 -0.11822484 -0.043868378 -0.019522091 0.07163103 0.054900818 -0.08391315 -0.15331085 -0.039803345 -0.083666034 0.10030062 -0.0708362 0.090317816 -0.01162465 -0.040638167 0.08608172 -0.17233944 0.057387996 0.0969006 -0.027072977 0.14341259 -0.12440961 -0.002118643 0.0053464146 -0.07566734 0.0168913 0.008538994 -0.07730299 -0.17068198 0.001621984 -0.12716475 -0.051186025 0.06792087 0.044894725 -0.02271697 0.08908931 0.04862551 0.057252303
re5#5 -0.12192121 -0.04698772 0.028978001 -0.02521039 -0.0783953 -0.07954143 -0.016339237 -0.037568096 -0.18568951 -0.055663977 0.011213388 -0.100150906 -0.068021424 -0.07636583 -0.04612925 -0.044810664 0.014749721 0.06077228 -0.081937835 -0.022744536 -0.020281728 0.00248682 0.06345704 0.019625219 0.020145906 -0.013657523 -0.05186013 -0.030553551 -0.079770215 0.045118622 0.12885575 -0.11668973 0.017129852 -0.06415624 -0.021842811 -0.0066666473 0.014661448 -0.032275803 0.015197082 0.027349517 -0.02981755 -0.059280258 -0.066963226 -0.10683396 -0.017842328 0.07272784 0.030392205 0.017584234 -0.033787455 0.020371815
sol5#2 -0.008975679 -0.03417128 0.008488154 0.027725838 -0.011241712 -0.08278935 -0.03668611 0.0035525674 -0.018378088 0.06253373 -0.06588002 -0.025294347 0.021785572 0.034741573 0.057444643 0.053972196 0.0057692304 0.032887667 -0.09422715 0.021243226 0.03450644 0.010020222 0.06251851 -0.02168393 -0.009437096 -0.053702407 -0.00983385 -0.035953917 -0.036631547 0.004396286 0.035519164 -0.021987647 -0.028834373 0.017992198 0.023921698 0.07273256 0.1377209 -0.08771499 -0.0019078709 0.091744445 -0.02478264 0.0054048123 -0.002065008 -0.04788307 0.04806206 0.13090205 0.01604142 -0.024114246 -0.026875678 -0.062722355
mi4#5 -0.07059915 -0.011612101 -0.018760733 -0.06801068 -0.043617077 -0.08249087 -0.0023772018 0.040503904 -0.10353112 -0.07273532 0.008850274 -0.025374675 -0.030629992 -0.089858904 -0.0115197 -0.0013931391 0.02283574 0.04478526 -0.06735946 -0.049741846 -0.027805245 0.047678117 0.057923045 0.01120538 0.0068364865 -0.013746096 -0.055669855 0.024126658 -0.054494247 0.04020852 0.04057759 -0.04137457 -0.0013688669 -0.042128634 0.004704305 -0.015492421 0.034464344 -0.0044049565 0.020266548 -0.0084438985 -0.014792174 -0.042063255 -0.076260485 -0.003581255 0.01699335 0.045637064 -0.04614099 -0.0083794445 -0.037034217 -0.00049358816
sol4#1 -0.00054999 -0.0005112387 0.04504834 0.006483135 0.017721744 -0.018042823 0.024263522 -0.0006989022 -0.021884644 0.032499336 -0.06702775 -0.0545826 -0.042127185 0.06324765 0.03576157 0.040226992 -0.011326114 0.031129463 -0.027895223 -0.0032756208 -0.0020589777 0.036124088 -0.0043731923 -0.015623283 -0.028348118 -0.014848897 -0.0043182755 -0.020592881 0.020596363 -0.034706637 0.018570831 -0.02210191 0.003138351 -0.04833987 0.0013481468 0.00896669 -0.0037425677 0.02429595 -0.004219026 0.0053738896 0.068768546 -0.0057577468 0.050872274 -0.013308262 -0.013489256 0.031762853 0.0053817243 0.029045166 -0.010251449 0.044072162
do6#6 0.021925025 -0.008113597 0.016775886 0.024849629 -0.039223544 -0.051890112 0.011673248 -0.015035614 -0.11469843 -0.0679635 0.0013623858 0.07288765 -0.045111142 -0.008614421 0.045037214 -0.024128605 0.024493512 0.06696637 -0.0365485 -0.028723186 -0.042228304 0.024891216 0.092149094 0.03667317 0.020512903 -0.039761785 -0.019584926 -0.0071025626 0.01855871 0.079522364 0.004537307 -0.045952313 0.0546871 -0.05429407 0.040132836 0.02438292 -0.02386842 0.0058301105 0.013495109 -0.009086702 0.03142548 -0.016569655 -0.007420329 -0.043585125 0.03982489 0.08224715 -0.08347107 0.052894924 0.003807992 -0.04749284
sol5b1 -0.076402165 -0.0034438446 -0.032658983 -0.04505036 -0.04102242 -0.12085072 -0.008292371 0.02188382 -0.15032673 -0.11452012 0.0005575541 -0.023964586 -0.029025735 -0.07811047 -0.039551213 -0.055049844 0.026479173 0.02858133 -0.10904806 -0.05946358 -0.020602861 -0.00049600203 0.105383605 0.058776245 0.05909866 0.0014795127 0.01835113 0.021576617 -0.08382556 0.05989131 0.1317584 -0.0648365 0.034037363 -0.07640617 0.0047050603 0.014918634 0.035033405 0.009184586 0.030767802 -0.008985992 -0.029013792 -0.022323286 -0.081786446 -0.058397826 0.055879183 0.054614805 0.039657593 -0.005360263 0.003855508 -0.037359532
mi6b3 -0.054338686 -0.02372853 0.0028694295 -0.019008443 -0.022580914 -0.06492413 0.0016983912 0.023258626 -0.10630397 -0.06379567 -0.0031896688 -0.052285194 -0.036359444 -0.042264435 -0.007940139 -0.0084827375 0.0075408225 0.027271155 -0.050160848 -0.065741934 -0.031566046 0.022823893 0.08127847 0.016774883 -0.002988321 -0.011928114 -0.016925724 0.0149671845 -0.033595685 0.052607775 0.100267865 -0.10013667 0.05142542 -0.023253312 0.02210943 0.021859791 0.024902677 -0.015564373 0.02519492 -0.0038169122 -0.0207007 0.0005188061 -0.066263095 -0.02996154 0.03533385 0.05521513 -0.006034721 -0.022927321 0.01135185 -0.009151075
